
//<![CDATA[

// a few things don't have var in front of them - they update already existing variables the game needs
lanesSide = 3;
patchesAhead = 55;
patchesBehind = 10;
trainIterations = 500000;

var num_inputs = (lanesSide * 2 + 1) * (patchesAhead + patchesBehind);
var num_actions = 5;
var temporal_window = 0;
var network_size = num_inputs * temporal_window + num_actions * temporal_window + num_inputs;

var layer_defs = [];
layer_defs.push({
    type: 'input',
    out_sx: 1,
    out_sy: 1,
    out_depth: network_size
});

layer_defs.push({
    type: 'fc',
    num_neurons: 24,
    activation: 'tanh'
});
layer_defs.push({
    type: 'fc',
    num_neurons: 24,
    activation: 'tanh'
});
layer_defs.push({
    type: 'fc',
    num_neurons: 24,
    activation: 'tanh'
});
layer_defs.push({
    type: 'regression',
    num_neurons: num_actions
});

var tdtrainer_options = {
    learning_rate: 0.01,
    momentum: 0.001,
    batch_size: 128,
    l2_decay: 0.09
};

var opt = {};
opt.temporal_window = temporal_window;
opt.experience_size = 100000;
opt.start_learn_threshold = 50000;
opt.gamma = 0.8;
opt.learning_steps_total = 500000;
opt.learning_steps_burnin = 1000;
opt.epsilon_min = 0.6;
opt.epsilon_test_time = 0.1;
opt.layer_defs = layer_defs;
opt.tdtrainer_options = tdtrainer_options;

brain = new deepqlearn.Brain(num_inputs, num_actions, opt);

learn = function (state, lastReward) {
    brain.backward(lastReward);
    var action = brain.forward(state);

    draw_net();
    draw_stats();

    return action;
}

//]]>
/*###########*/
if (brain) {
brain.value_net.fromJSON({"layers":[{"out_depth":455,"out_sx":1,"out_sy":1,"layer_type":"input"},{"out_depth":24,"out_sx":1,"out_sy":1,"layer_type":"fc","num_inputs":455,"l1_decay_mul":0,"l2_decay_mul":1,"filters":[{"sx":1,"sy":1,"depth":455,"w":{"0":0.021190195088315267,"1":0.014538918979607261,"2":0.016280009367322754,"3":0.03208355372515227,"4":0.06548673921241047,"5":-0.0006331656800135301,"6":-0.04655117418202206,"7":0.06203441036019867,"8":0.025353946733607094,"9":0.04318453332717736,"10":-0.011572642238840906,"11":-0.04368536875860987,"12":-0.0283829315432241,"13":0.019573086009952913,"14":-0.041541033413083336,"15":-0.05347235898295592,"16":0.016594678445907243,"17":-0.014940501903973271,"18":0.10919542371333635,"19":-0.02646124834540525,"20":0.0006935546359971207,"21":-0.015942537104348304,"22":-0.01589422817596437,"23":-0.07276431432463099,"24":0.06146742309372561,"25":-0.03173110263850601,"26":-0.00869175068864419,"27":-0.03542354032983351,"28":0.04403064467748095,"29":0.030066762508144475,"30":0.01840218886965082,"31":-0.030926283458344497,"32":0.05088714011606147,"33":-0.038285164520445114,"34":-0.058244938858060584,"35":0.02376115516326541,"36":0.03325473657186633,"37":0.04201226799675273,"38":-0.044027983068682865,"39":0.04558683159286794,"40":0.05380381716355744,"41":-0.03038544359633926,"42":0.11911352670770192,"43":0.04669079779195133,"44":-0.009419512372040424,"45":0.006053372741082936,"46":-0.04565462795595985,"47":0.10226152507469688,"48":0.031354370343893,"49":-0.006392218127083812,"50":-0.07809990252455062,"51":-0.014563618380089113,"52":0.017480312839937517,"53":0.04876736805116865,"54":-0.060700267379388856,"55":0.04245839498287847,"56":-0.03237089165273066,"57":0.045840155174941874,"58":0.041126498226215495,"59":-0.03746773003905148,"60":0.047871389126921876,"61":0.10235464240692428,"62":0.0450201265912457,"63":-0.01621869004737304,"64":0.007227812848877175,"65":-0.025922968624069006,"66":-0.06306255152061437,"67":0.05760078352256738,"68":-0.011000432607601751,"69":0.021018156893888723,"70":-0.011401588101402649,"71":0.06553182134911587,"72":0.020696773539229118,"73":-0.006259711987375491,"74":0.13265910217198873,"75":0.00992181186365994,"76":0.029113235973464435,"77":0.003597637137052326,"78":0.03205091689275034,"79":0.026854490752617102,"80":0.05480498555218705,"81":0.08819243827749187,"82":0.010388877277882302,"83":-0.042460963726737994,"84":0.031046313700711068,"85":0.031056320342020577,"86":-0.04074389331973848,"87":-0.06758040022234846,"88":-0.007453371399767571,"89":-0.09604192961245996,"90":0.033358577411970035,"91":-0.020437988032207276,"92":0.03965444730829695,"93":-0.007846117143948764,"94":0.02990257767294574,"95":-0.057482004615406,"96":-0.04631303519927228,"97":0.02932194010422948,"98":-0.043210269227344424,"99":0.02779337665248274,"100":0.05648846182244534,"101":0.018478321912087214,"102":0.03445693419900764,"103":0.06573254687975087,"104":-0.0696781763595031,"105":0.053469186577330435,"106":0.043240290837703435,"107":-0.029476618687546512,"108":-0.04937142854879469,"109":-0.02491919348699678,"110":-0.02981375097213836,"111":0.04067420223311505,"112":-0.04463616576274883,"113":-0.03842143194755119,"114":-0.028659795575174556,"115":-0.054962084699246905,"116":0.08089304232563357,"117":-0.09808899323072404,"118":-0.08947719109994727,"119":-0.016746685361714038,"120":-0.049531853773568654,"121":0.039194037103448806,"122":-0.0864022251419837,"123":0.021767536745099868,"124":0.01695623411865781,"125":-0.0749419269612388,"126":-0.00259453112357708,"127":-0.03514869526465076,"128":0.012904300807524116,"129":-0.03887615431492922,"130":0.004458635937823838,"131":-0.02634409956727428,"132":0.01267008725656657,"133":0.05100223937996969,"134":0.005430636430297381,"135":-0.04214709599111723,"136":0.023656603826472524,"137":-0.05460197311669193,"138":-0.02524947217150498,"139":-0.005784791420258738,"140":0.06555892581211886,"141":0.033637088397900576,"142":-0.08263086693786517,"143":0.012517633560199136,"144":-0.015666509340847443,"145":0.006444978768597225,"146":0.012069932182179808,"147":0.030894261553120972,"148":-0.028772715592885984,"149":0.07341438829790635,"150":0.04489054946115879,"151":-0.0002204447688398291,"152":0.03184111946195446,"153":0.04655453082414882,"154":-0.06316205809318039,"155":0.05926129984612643,"156":-0.07165300807207861,"157":0.05497891453677884,"158":-0.08497542665506552,"159":-0.017884077760933426,"160":0.0009636641719567783,"161":-0.03035526910148625,"162":-0.025452741019913898,"163":0.11065887348220055,"164":0.031139646719411416,"165":0.012024787359177247,"166":-0.00016383567113575106,"167":0.07511964583383061,"168":0.03412376848191428,"169":-0.014245804847890097,"170":0.0013445003343611965,"171":0.03406812455629625,"172":0.02921550120970576,"173":0.036019571339384666,"174":-0.03119379780367987,"175":0.107772954655031,"176":-0.019722438267748738,"177":-0.030416742398153777,"178":-0.003995286242051374,"179":-0.006213232597628889,"180":0.04451957920132003,"181":0.09733718760427056,"182":-0.05935846120449289,"183":-0.029788361796678167,"184":0.0037218989392390944,"185":0.04427778209073516,"186":0.024236222448855926,"187":-0.004337542194215055,"188":0.05104265972611776,"189":-0.022930319107175617,"190":-0.06747068408651528,"191":0.017997290984453723,"192":0.0626665650878591,"193":0.07013579453181047,"194":0.015246735954487119,"195":-0.0023384565290926174,"196":-0.03819193718460955,"197":-0.06874317672371483,"198":0.002531938060264463,"199":-0.04014997685006299,"200":-0.0064338191126438425,"201":0.007094303218344305,"202":-0.0009454131233795593,"203":-0.024201570458976664,"204":-0.08182548734224494,"205":-0.08800968547646416,"206":0.0076933353712704605,"207":-0.00573404248242509,"208":-0.01318665279386144,"209":-0.06429070302295413,"210":0.08000726796771876,"211":0.018342592853306344,"212":-0.04899664114083429,"213":-0.04564611893717988,"214":0.03125084666816927,"215":-0.06530403341221593,"216":0.07011506609046694,"217":0.08323049617197215,"218":-0.007073970161772064,"219":-0.06553981369733373,"220":0.029241542802412986,"221":-0.010307463442554924,"222":-0.013917508661242252,"223":-0.015537945401812617,"224":0.019022757013426518,"225":0.0387408342188216,"226":0.06421908936246112,"227":0.020035157674913495,"228":-0.023977002485288574,"229":-0.0014301111286047499,"230":0.018839195354663742,"231":0.04514107890534576,"232":0.019257864069187683,"233":-0.043768379631052685,"234":-0.01350687300740861,"235":-0.02394644475806153,"236":-0.004926294138665484,"237":-0.08867190022256186,"238":-0.029990466897306743,"239":0.10929772437512522,"240":0.04905625063711803,"241":0.02792130098748905,"242":-0.03688536956622497,"243":0.11363891136610037,"244":-0.0030027354460245874,"245":-0.00881453204814871,"246":0.04257948289100896,"247":-0.006689701781888777,"248":0.05795393482559499,"249":0.006404280461591522,"250":-0.01439783544546224,"251":-0.0029584534055563977,"252":-0.029612062952250807,"253":0.007119606343505784,"254":-0.04201270268031612,"255":-0.050374328898492464,"256":-0.062483885149986845,"257":0.00845923345890565,"258":-0.044080382658593584,"259":0.06487176031529023,"260":0.05734859143740896,"261":0.034144695475654754,"262":0.05635909909850485,"263":-0.001257032413083117,"264":-0.008195185399877236,"265":-0.004247580095812349,"266":0.01183092538423928,"267":-0.010660047125550241,"268":-0.043938863565875556,"269":-0.027110624927733466,"270":-0.056697973728576684,"271":-0.09341230489613919,"272":0.021389154025558518,"273":0.06493056120231393,"274":0.04916831540166434,"275":-0.008090618991462583,"276":-0.0030740012947339116,"277":-0.04444853719659862,"278":0.03218266407085631,"279":-0.030647473737573122,"280":-0.024940235835932956,"281":-0.004023717202377283,"282":-0.06705102009164732,"283":0.07838972394947355,"284":0.039168505472773285,"285":-0.029117286501028922,"286":-0.0834748168700741,"287":0.033879975890695385,"288":-0.00824011346003827,"289":-0.048203705134152036,"290":-0.052275331451141584,"291":-0.03466601782400404,"292":-0.0038615904211137552,"293":-0.005583360774709017,"294":0.1311565381081086,"295":-0.00927631095947788,"296":0.03664754867512316,"297":-0.05891249614676664,"298":-0.04550419497155917,"299":0.01597449954794865,"300":-0.04597128919986186,"301":-0.0032762808494211336,"302":0.02639547442060915,"303":0.1104790629268409,"304":0.01657801521568194,"305":-0.12064063930952747,"306":0.02702011507241511,"307":-0.017673740066201416,"308":0.018109456027919853,"309":0.009985038180187897,"310":-0.015906407528061963,"311":0.02019716129129264,"312":0.006495360096714571,"313":0.039249232735225445,"314":-0.06532872893019451,"315":0.044869405289587216,"316":0.0032123714442615476,"317":-0.008032399483234165,"318":-0.09050804496131419,"319":-0.033649495373961044,"320":0.024338775595536138,"321":0.04660686972017563,"322":-0.06118818452718508,"323":0.015243059113370736,"324":0.020687063553527348,"325":0.015229496119258832,"326":0.04997708879475244,"327":0.004320909049373832,"328":0.11356428765408397,"329":-0.015974973013636488,"330":-0.07674196431567684,"331":-0.04554534901962718,"332":-0.05256796620981935,"333":-0.0008152962474602683,"334":-0.015674969968132158,"335":-0.03279600234829567,"336":-0.025517255968121818,"337":-0.06055441560702802,"338":0.048166511455773546,"339":0.01952645684931832,"340":-0.007866315017216654,"341":-0.02095916046609957,"342":0.0839514297322421,"343":0.10248115603946584,"344":0.010824859269249535,"345":0.06652931355821205,"346":-0.013947291978853114,"347":0.03533644266980966,"348":0.08118178114991638,"349":-0.0022393154259633557,"350":-0.03546820504997149,"351":0.03629470549178536,"352":-0.015203363765047393,"353":0.00889449221689737,"354":-0.02447011651543429,"355":0.05238914016766289,"356":-0.010934669191374303,"357":-0.03661110265559864,"358":-0.04890543221423483,"359":0.06772576307397582,"360":-0.025279016698167525,"361":-0.045603659139416323,"362":-0.002462246201094637,"363":0.021199838550209394,"364":0.011655137375428316,"365":0.061241322254164864,"366":-0.026928864475268304,"367":-0.011269345988465733,"368":0.05547795599542817,"369":-0.0013031044058559643,"370":0.027443028867693786,"371":-0.013508626623804238,"372":-0.020964949374564158,"373":-0.017698549393667662,"374":-0.021463266683681058,"375":-0.06280786563757032,"376":-0.03321208707685334,"377":-0.013463934814080042,"378":0.09070629890359869,"379":-0.012221751841482545,"380":0.029274372862130627,"381":-0.053392909231212995,"382":0.04128759434650896,"383":-0.015169776288567983,"384":0.02472926454081012,"385":0.043125206588406365,"386":0.012513096139583065,"387":0.04654969639891874,"388":-0.0001813317873870649,"389":0.006309497657505442,"390":-0.007378536810793627,"391":0.002497089935571818,"392":-0.05148012494302069,"393":-0.014685403961851813,"394":-0.045941982100051446,"395":0.00832618482939346,"396":-0.01660879411498069,"397":-0.017165259754052316,"398":0.04848569107715009,"399":0.01930952766491687,"400":-0.0671255147263351,"401":-0.013041569822013705,"402":-0.018425369385713503,"403":-0.10927200347203321,"404":-0.07155944009208441,"405":0.037669492836737116,"406":-0.046101839295370345,"407":0.049263484843303756,"408":-0.014794431940070003,"409":0.02054013564359262,"410":0.018399622532320845,"411":-0.05568765438406914,"412":-0.004726150568069646,"413":0.04565108177659621,"414":0.009264469724690163,"415":0.0317015817034657,"416":-0.06197112621890382,"417":0.05040840437875465,"418":-0.04330122392473995,"419":0.005065644486820784,"420":0.0642545059653514,"421":-0.011237707944402268,"422":0.03288882412650811,"423":-0.03295910128325784,"424":0.007624376132965557,"425":-0.08222399941125631,"426":-0.04918678038802266,"427":-0.030091007985059565,"428":0.09267362558086321,"429":-0.09172423906954566,"430":-0.019116395924599634,"431":-0.00808480703306639,"432":-0.01705736098494402,"433":0.013282432328060804,"434":-0.0530578963296095,"435":0.041217631026109605,"436":-0.03364256378521957,"437":0.015580244072605642,"438":0.08504955890858652,"439":-0.092105233436866,"440":0.0035372232285320387,"441":-0.0161922622272509,"442":0.018075539022921437,"443":0.0326742735933271,"444":-0.04588162638851671,"445":0.03185939134418167,"446":-0.05353776628066424,"447":0.010389760329414063,"448":0.029466015945904627,"449":0.01304837010541464,"450":-0.006482843798793243,"451":0.05190273665947594,"452":0.03396858392680511,"453":0.03275795151825583,"454":0.01276520454752065}},{"sx":1,"sy":1,"depth":455,"w":{"0":-0.002168122652332651,"1":0.04316633964001678,"2":-0.01602615765591547,"3":-0.03303714890638283,"4":-0.047600373520405005,"5":0.013686460217328845,"6":-0.001490232019290329,"7":-0.08633475328207366,"8":-0.1169752230858168,"9":0.06475815949297575,"10":0.0012650059424932436,"11":0.06867904988486294,"12":0.011929913715442582,"13":-0.02887685151812478,"14":-0.11079911457739626,"15":-0.0021150775045802777,"16":-0.026746045779739814,"17":0.0003974582781838828,"18":-0.013456841046481129,"19":0.00986063151418491,"20":-0.008906524086068577,"21":-0.016112668193104075,"22":0.0128357771364935,"23":-0.03113919941484429,"24":-0.0007845886401211226,"25":0.006338431761135947,"26":-0.11287840810765339,"27":0.012105274345711403,"28":0.015139608097118715,"29":-0.06195491406586032,"30":-0.008226236582269151,"31":0.01614809346564692,"32":-0.04053432635583985,"33":0.0028855896294475397,"34":0.023306446554663234,"35":-0.04360733143184232,"36":-0.04845728037852497,"37":0.027432419387088652,"38":0.0014761330083791378,"39":-0.029978970406201778,"40":-0.022851485598933408,"41":0.06978927766866287,"42":-0.005457671990207262,"43":-0.07355773123206415,"44":-0.09511545425127091,"45":0.039615988709297154,"46":-0.027828083466393132,"47":-0.1083165428045135,"48":0.060520016704351476,"49":-0.03554204005777708,"50":0.01469065448138147,"51":0.025754827174331498,"52":-0.022741415546254622,"53":-0.039849340219806934,"54":0.01142189378468259,"55":-0.09115421164055806,"56":0.002122357417062914,"57":0.016485143992425982,"58":0.048562570233943,"59":-0.04657478925001046,"60":0.003423621169343807,"61":-0.050135137714935996,"62":-0.021940297306362565,"63":0.08173888499947086,"64":0.006802173837135137,"65":-0.01589523075911823,"66":0.007047078649586333,"67":-0.018802096811018874,"68":-0.10318430025174147,"69":0.01170661236852625,"70":-0.048959136379283966,"71":-0.02967957080133945,"72":-0.10737855603326302,"73":0.029903590510358277,"74":0.08378282283984227,"75":0.01369264890784841,"76":-0.03341038005313609,"77":-0.06424298708028273,"78":0.0743035963884503,"79":0.03180123738639702,"80":0.027470570706938133,"81":0.004677906761174444,"82":-0.05824251126813592,"83":0.019183094169364392,"84":-0.04014410682370317,"85":-0.05683322608181025,"86":-0.007692354484595523,"87":-0.001696193407434378,"88":-0.03960352596658497,"89":-0.017863930588900446,"90":0.008155383133213037,"91":0.05997722855923412,"92":-0.02848931120589485,"93":0.001097743663397103,"94":0.10830461950797314,"95":0.025157811513107087,"96":-0.029511210697579414,"97":-0.08416477198354237,"98":-0.06396227178453143,"99":-0.029515718312976866,"100":-0.05252810571610846,"101":-0.05323364589219915,"102":0.0897587970273481,"103":-0.03277024837643333,"104":-0.055876157880779494,"105":0.07698835219175354,"106":-0.022577607522911877,"107":0.028115124450073272,"108":-0.04290491413123818,"109":-0.03544818350098749,"110":0.01336073447425941,"111":-0.02041177055278856,"112":0.02766938473157955,"113":0.00870558982284055,"114":0.09230177410483835,"115":0.007103375845573303,"116":-0.02735269750433722,"117":-0.05798271977708747,"118":-0.0019393232220759288,"119":-0.08374589841353115,"120":0.025525605406076873,"121":-0.0102402148147999,"122":0.04553348616108777,"123":0.04649529043538903,"124":0.002117612292693958,"125":-0.031864961097209536,"126":0.041090283164879254,"127":0.06567533599541846,"128":-0.011029420294206562,"129":-0.0925757178686842,"130":0.044445681834302565,"131":-0.002230093693098625,"132":-0.09465242062812534,"133":-0.02999455479755075,"134":0.045121435161063074,"135":-0.006643569738723258,"136":0.030418709097786777,"137":0.020754020464872742,"138":0.053920880396613455,"139":-0.062451855096281914,"140":0.0031451268635747523,"141":-0.02337252280708812,"142":-0.02064728728430226,"143":-0.015933028552714116,"144":-0.0025881726431688764,"145":0.013837372711968818,"146":-0.03128001870135,"147":-0.0979876008758126,"148":-0.07084184111019876,"149":0.032271221626657944,"150":0.032104402916669696,"151":-0.03434622102946977,"152":-0.06912988210908298,"153":-0.027732572728053035,"154":-0.003556252449962526,"155":0.0506904618630902,"156":0.007231630810689023,"157":0.053718818981700694,"158":-0.06491969661414881,"159":0.08202635593923552,"160":-0.00680894050504013,"161":-0.00046608972184978995,"162":-0.06762645317507832,"163":-0.004404753223478136,"164":0.03082649775420563,"165":0.042628860703493386,"166":0.0390544529961175,"167":-0.014655074892907748,"168":-0.03620031760621312,"169":0.06661583462162356,"170":0.04277445765898278,"171":0.11039789672821826,"172":0.08976972959324167,"173":0.06370259007374608,"174":0.0002108895914737427,"175":-0.014459091796093186,"176":0.057272853063473655,"177":0.006455901738443288,"178":0.022385552594041444,"179":-0.039274725170547885,"180":-0.06493676383233361,"181":0.023507663612648097,"182":0.08705495884202707,"183":0.034617645128886904,"184":0.035731048923134195,"185":0.048570306098958065,"186":0.03799343661543956,"187":-0.009579493071494099,"188":0.002507869265693253,"189":-0.022163954776341813,"190":0.05517435595087409,"191":0.0570172991542258,"192":-0.011960550061385354,"193":0.03130521586819476,"194":-0.01241965197733586,"195":-0.007575326290283455,"196":-0.04401910699308128,"197":-0.03968690363090796,"198":0.03478298149680265,"199":-0.11918321836593725,"200":0.009289885112883815,"201":0.04940041300599419,"202":-0.036719790515671605,"203":0.032257019170010344,"204":-0.09732583009379618,"205":0.0947369874653333,"206":-0.010637615516796815,"207":-0.025001916430982256,"208":0.04774871139958899,"209":0.027065389036919595,"210":-0.04887682425715145,"211":-0.05234407141374675,"212":-0.048772492848266694,"213":-0.016202806171132397,"214":0.04084039808489433,"215":-0.01895532317280858,"216":-0.04057979185176327,"217":0.0057332018797313184,"218":-0.03067051613838667,"219":0.04070582356678564,"220":0.03545125565353322,"221":0.05009216460471166,"222":-0.0021181578441047,"223":0.019715951302648353,"224":0.061226430996909914,"225":-0.018472825616617814,"226":0.031825818610817604,"227":-0.062014890923453594,"228":-0.040190352045135415,"229":-0.06499544875144629,"230":-0.02051942161556953,"231":-0.019350610179068667,"232":0.07580385827307591,"233":0.059700749116243415,"234":-0.04118044944003111,"235":0.02151931627786876,"236":0.09014283133172335,"237":-0.022373514293086514,"238":0.016440440571830105,"239":-0.026610452657083377,"240":0.02296907622301358,"241":0.028746279957541983,"242":-0.02636297559592665,"243":0.0438978292593308,"244":0.05822567197643117,"245":0.06556884183756956,"246":0.07401869050157064,"247":0.01882602709579059,"248":0.09312585244497773,"249":0.049547937584205004,"250":0.04550881340189611,"251":0.07509092187177348,"252":0.04601620408414055,"253":0.05163235220558917,"254":-0.004603515782478135,"255":-0.031157714721008332,"256":-0.03993519838403458,"257":0.0027430544047805146,"258":0.09300521805230927,"259":-0.022527824048741783,"260":-0.050855440476777626,"261":0.05657327628255889,"262":0.038640136936294325,"263":-0.05792152912884033,"264":-0.06256677475639308,"265":-0.018002525568160732,"266":0.009836306799925282,"267":0.01756199176527271,"268":0.06713098469075725,"269":0.023296550872162397,"270":-0.015043750115068087,"271":0.0012908962735274651,"272":-0.05703654374102289,"273":-0.006147401183116421,"274":0.004217528426656884,"275":-0.007631190756367149,"276":0.0028082764568340807,"277":0.003627969892804939,"278":-0.014786920790364588,"279":-0.04236934858132488,"280":-0.02206386971935319,"281":-0.013041011508976937,"282":0.01631818872482674,"283":-0.0239355375086988,"284":0.058215214890000776,"285":0.03218911340854813,"286":0.05731636725390442,"287":-0.07120502908370595,"288":-0.019110929290934477,"289":-0.034612938523854,"290":-0.037292309206777285,"291":0.005551231709191509,"292":-0.017508907829857152,"293":-0.00903168964467928,"294":-0.01086461671491357,"295":0.014051664147283397,"296":-0.06491769766333923,"297":0.01499027424615128,"298":-0.04558377068596856,"299":0.03410775442508631,"300":-0.0017877252648294806,"301":-0.054376935059093294,"302":-0.0812546894127758,"303":-0.02001690011153407,"304":-0.0052558163720763055,"305":0.010123419644708236,"306":-0.07183629129929638,"307":-0.035047965514165925,"308":-0.006487662535077,"309":0.0966859399418809,"310":0.05993568105665483,"311":0.01266999778379346,"312":0.02182892734934106,"313":-0.0002670279525670482,"314":-0.006194113273107328,"315":0.12634302760202196,"316":-0.032211790096864916,"317":-0.031329916590024466,"318":0.11909806864309536,"319":0.00725783378397108,"320":-0.0931030467759066,"321":0.003645300132579726,"322":-0.037376307680737346,"323":-0.12236574688508722,"324":0.04932176416285152,"325":-0.000389020384196883,"326":0.04180939790556388,"327":-0.083132848698278,"328":-0.06448054005769897,"329":-0.00036123587333679937,"330":0.04817932261499239,"331":0.03077767186472071,"332":-0.012901640026610496,"333":-0.059394978271779385,"334":-0.03565215832253434,"335":0.07813178567756228,"336":0.021767137374981437,"337":-0.038883227879484984,"338":-0.030268936024767885,"339":0.025913615698352956,"340":-0.029358007997571354,"341":0.028162923409085272,"342":0.08980288332304666,"343":-0.0351040252586352,"344":0.013249965211363984,"345":0.017048763821484073,"346":0.03029954980561428,"347":0.04734578548128524,"348":-0.018694317733144977,"349":0.009218768846270556,"350":0.0697854317224364,"351":0.0010221292026175459,"352":-0.026606383220990567,"353":-0.04712933976787414,"354":0.020772401512108622,"355":-0.003609713918082563,"356":-0.020041245774211368,"357":-0.09024396159305303,"358":0.02666357068500637,"359":0.0263583382785791,"360":0.04739102912602491,"361":0.07838813273863418,"362":-0.02893745604263987,"363":-0.015758303453785146,"364":0.02020193553469349,"365":-0.05454919675303963,"366":-0.03286418953165305,"367":-0.020260091007671246,"368":-0.05717325571274333,"369":-0.06683856684646926,"370":-0.05120014705980982,"371":0.020930660855123975,"372":-0.06385616458582503,"373":-0.02653547522845694,"374":0.03217282815215357,"375":-0.042647749879511004,"376":0.010071133703902136,"377":-0.008886260583857651,"378":0.041701362328021935,"379":-0.026319885250454512,"380":-0.004652314809957849,"381":-0.021933856951978477,"382":0.08167514384807362,"383":-0.0008033126796729176,"384":-0.049032560479791466,"385":-0.053675923625599566,"386":0.08845293925746128,"387":-0.05631211175760105,"388":-0.010389378924987449,"389":0.02388790066764924,"390":-0.04154413260243644,"391":0.05128192891590896,"392":-0.024094663587869693,"393":0.0017122698245501107,"394":-0.061360654246911575,"395":-0.119324647323064,"396":0.0750031213375715,"397":-0.041970040756685305,"398":0.07588862909607588,"399":0.08495663971846376,"400":0.010083846521232783,"401":-0.11513434639526474,"402":-0.03191968142892713,"403":-0.034361883590950236,"404":-0.06406089977585448,"405":-0.038045421761345,"406":-0.016313046223383604,"407":0.028560010156494803,"408":0.023633733747001853,"409":0.018309796011390444,"410":-0.0021148479474903522,"411":0.007464200545328214,"412":0.040286106593043505,"413":0.07673524673892337,"414":-0.03730377080447759,"415":-0.006304320965703279,"416":-0.01383121773527312,"417":0.039112544437574025,"418":0.06458849899364584,"419":0.034982400813460934,"420":-0.10324155308336756,"421":0.007014632934349105,"422":0.00565057241313275,"423":0.016248031586602492,"424":-0.08257523697021962,"425":0.029429540200324174,"426":0.04114115752513531,"427":0.07780563634306599,"428":0.0013104728320084851,"429":0.12274170184746713,"430":0.011457205002977254,"431":-0.061107239848613416,"432":-0.014483430378407656,"433":-0.0177019844129268,"434":-0.03347910623227358,"435":0.017431511456538172,"436":-0.029324033832090514,"437":-0.009171624648567023,"438":0.058921633004008454,"439":-0.0381473291171841,"440":0.028586151274013507,"441":-0.030278228101566523,"442":0.027368253856469564,"443":-0.05519215406469951,"444":-0.022044276465259274,"445":-0.10606733167876244,"446":0.05109063204082354,"447":0.01733963162138129,"448":0.008997083955152547,"449":-0.01759562822118616,"450":-0.0665780306237084,"451":-0.06291415516764082,"452":-0.07090843086894766,"453":0.0012783165213460183,"454":0.025629956956303768}},{"sx":1,"sy":1,"depth":455,"w":{"0":-0.04698096350123826,"1":0.04701816286632663,"2":0.07674573085598121,"3":0.03486456849545948,"4":0.00804399395610841,"5":-0.004282378134559804,"6":-0.036995264863438855,"7":0.030287757428020964,"8":0.0027924130076686757,"9":-0.0034711453883284056,"10":0.00431661218592013,"11":0.009172083075213663,"12":-0.0049208253368278445,"13":-0.06842138735982416,"14":0.029991925955711134,"15":-0.016822144218317465,"16":-0.09578010583869156,"17":0.026451729523394737,"18":0.02906151459328261,"19":0.0026799127955280584,"20":0.0013451508371332464,"21":-0.049722120193308676,"22":-0.047223434624802316,"23":0.027308242399552013,"24":0.09101434588624227,"25":0.005175713283219902,"26":0.07729427957414864,"27":0.03149015987175204,"28":0.10564799848897491,"29":-0.022998946208650315,"30":-0.04573169173361545,"31":0.024841786615112032,"32":-0.08313230351759283,"33":-0.0023372608056762795,"34":-0.021261911172452692,"35":-0.00628675752947783,"36":-0.07437895409897026,"37":0.014757316251323769,"38":-0.024563176974394755,"39":-0.0364671803405578,"40":-0.11646567425660481,"41":-0.06859683691958322,"42":-0.006582757437101025,"43":-0.00682916564111942,"44":-0.049684634117345965,"45":-0.041234618251784906,"46":-0.011601233604924243,"47":-0.04099562383045073,"48":-0.0399042906369633,"49":-0.02406658358132318,"50":0.09772574197523291,"51":-0.028900204887722096,"52":0.0484908843541661,"53":-0.029734305682175426,"54":-0.035559015740658895,"55":0.07230663145168444,"56":-0.04702306983619527,"57":0.017454097646294738,"58":-0.0602075807443376,"59":0.009573086044052968,"60":-0.02152636630806839,"61":0.028708407035757666,"62":0.018499429937780382,"63":0.011840923442017223,"64":0.0025206219596012776,"65":-0.02507208912281981,"66":-0.007387935453160392,"67":-0.06372345985904379,"68":-0.05116745754726427,"69":-0.0268470004599368,"70":0.03979695694805386,"71":-0.023810515277395434,"72":-0.033019160418204456,"73":-0.052839849640246385,"74":0.016040539304877123,"75":-0.02585018919593113,"76":-0.03909992203601796,"77":0.04014096201580028,"78":-0.043811351706206696,"79":-0.041464376189037117,"80":0.06383258464214787,"81":0.023631838655342144,"82":-0.025266314595646724,"83":-0.03297628817101994,"84":0.07052395122161752,"85":-0.0017201809602700963,"86":0.06370937820979614,"87":0.025096600079910013,"88":0.015348001372211999,"89":-0.023712600788771816,"90":0.02888302809070614,"91":-0.08139768965841737,"92":0.04708350390592764,"93":-0.03208312612128704,"94":-0.021643641523974688,"95":-0.01874845969054308,"96":-0.032047623705899225,"97":-0.04612991282067635,"98":0.031182989448302688,"99":-0.006785631992889098,"100":-0.03192097553802177,"101":-0.06627647110671694,"102":0.023521113431055146,"103":0.04068104793640375,"104":0.07329835139919548,"105":-0.03767456235127191,"106":-0.05228409978836437,"107":0.06740256332911013,"108":-0.05311785931728985,"109":-0.011788639490191393,"110":0.07308357296142985,"111":0.013506889673396912,"112":0.06853242227643595,"113":0.043411612799961204,"114":-0.00937434405774723,"115":-0.029792426691423814,"116":0.06723448153653158,"117":-0.004031921444100987,"118":0.00759743326700108,"119":-0.05430868070937524,"120":-0.03209606343585883,"121":-0.04039724818144915,"122":0.07289026160962787,"123":0.04684519128598659,"124":0.053749591797359726,"125":0.003490328005822059,"126":0.0076164260614128235,"127":0.11547966961064322,"128":0.04216988196160138,"129":-0.013588153861736448,"130":-0.02142762593589811,"131":0.055848483738949524,"132":0.06610119029149199,"133":-0.05172154349711277,"134":0.010733196337303338,"135":-0.014016574318793355,"136":0.06550166916312933,"137":0.04203978501196567,"138":-0.08235544691686539,"139":-0.048861105939189256,"140":0.009017011403694564,"141":0.03947602154786841,"142":0.0016941834686811648,"143":0.00773882545641416,"144":-0.03284637916256513,"145":-0.05869808101196655,"146":0.10619010135332574,"147":-0.028630863350601596,"148":0.06419257469753357,"149":-0.0751334606671072,"150":-0.021598456308582436,"151":-0.009006393907762136,"152":-0.016733217067247234,"153":0.05701006340343971,"154":-0.0037778450170987948,"155":-0.011721889805833588,"156":-0.029401054705660783,"157":0.006881447596960903,"158":0.011680530707820711,"159":0.004547483400275432,"160":0.03010823528399168,"161":-0.052376039459017545,"162":-0.016031223658100106,"163":-0.10662462706758963,"164":0.020515664442979226,"165":-0.0014975400951394062,"166":0.10548280773549039,"167":-0.04604066683625447,"168":-0.08326745414758704,"169":0.0009503191432173167,"170":-0.0590572528543019,"171":0.0443104061128894,"172":-0.061708582549405346,"173":0.027112797234058742,"174":-0.0025226019748109843,"175":-0.04300289498433422,"176":-0.009081618312562921,"177":-0.00746553290575253,"178":0.04124034373251223,"179":0.01920937540640853,"180":-0.06883404199612972,"181":-0.1164893373185968,"182":-0.053850596810857417,"183":0.024746324846970008,"184":-0.019568569883946788,"185":0.01305213027493595,"186":0.013430129539888078,"187":-0.08014410095379877,"188":0.016867539319115152,"189":0.017057642214802916,"190":-0.04511319724854231,"191":0.017220328466913407,"192":0.029745338148474913,"193":0.01133095064783948,"194":0.03449213923680822,"195":0.013052045718822403,"196":0.030958205727568827,"197":-0.047852752173234196,"198":-0.07964586571356061,"199":0.02098440686794875,"200":0.03578603259875578,"201":0.023526792509157853,"202":-0.03531486497029857,"203":-0.006809354740783697,"204":-0.004337666260293977,"205":0.05149253373976859,"206":0.02850409554153223,"207":-0.049173532825311936,"208":-0.061967758419832854,"209":0.052100878871895046,"210":0.04675528370505592,"211":0.03596454719050635,"212":-0.010488851954998995,"213":-0.09689371274842011,"214":0.015561621529903546,"215":0.10360439101558372,"216":0.060042655003618335,"217":-0.0010174573324186489,"218":-0.01668713845912844,"219":0.10475420956886891,"220":-0.018122663953979365,"221":0.0011908728914410468,"222":-0.043901034009692565,"223":0.041787329767999565,"224":-0.03546767649097375,"225":-0.0007578159202266951,"226":-0.010244716424500859,"227":0.06809956450060475,"228":0.03509979391838455,"229":0.05620766983877091,"230":-0.06287749558029454,"231":-0.07316197202312474,"232":0.011299916430587024,"233":0.0731899595194448,"234":0.054499755713265964,"235":-0.04396273983213613,"236":0.03223658557351931,"237":0.07519973041210634,"238":-0.03308997504689703,"239":0.056259400973478806,"240":0.03387628562229513,"241":-0.006227043359244057,"242":-0.07385779272588407,"243":0.026945702963055793,"244":0.058751987063640446,"245":-0.025732396254730904,"246":-0.035064729574029195,"247":0.027721118875554666,"248":-0.050203329982328064,"249":-0.02383298562951242,"250":-0.0908683146041466,"251":-0.048694879637882084,"252":0.03869755740877677,"253":0.015966952578941384,"254":0.03554280961398617,"255":0.005333163455570408,"256":-0.04684199792293148,"257":0.07905746523716749,"258":0.057874226051354824,"259":0.08629224041587426,"260":0.034973335120714204,"261":-0.022677672203318757,"262":-0.0008676982554561073,"263":0.07400030298026233,"264":-0.0014163130808692065,"265":-0.060568757479184665,"266":-0.02534010081013615,"267":-0.09625116604142679,"268":-0.03703095411280135,"269":-0.126652644670188,"270":0.009301154305146237,"271":-0.002541865102230447,"272":0.01339162144481848,"273":0.020298533229361256,"274":-0.06772026497610902,"275":0.04842135713684311,"276":-0.04068780909577635,"277":0.023249835922297027,"278":-0.09922157321868076,"279":0.03418722958972916,"280":-0.020832529708605926,"281":-0.016152444267208847,"282":-0.015903566396687416,"283":0.009531921319291916,"284":-0.0010552091960654218,"285":-0.02661227134853158,"286":-0.04398306822343739,"287":0.017412982972426064,"288":0.017071450924130108,"289":-0.042316799828104,"290":-0.13151075265031956,"291":-0.06714667693736297,"292":0.0007180085620423947,"293":-0.019923903018132738,"294":-0.003610921376275413,"295":-0.006040268138943887,"296":0.005862486605398839,"297":0.06975044675687996,"298":-0.027363645013159965,"299":0.02712585906961014,"300":-0.054029747104955665,"301":0.04862431786237031,"302":-0.022061937071727808,"303":0.05654596808079909,"304":-0.03156768306418674,"305":-0.05201479302296939,"306":0.029196535822788278,"307":-0.03694086890825348,"308":-0.005678737559886597,"309":0.062247902343449665,"310":0.009415035744153318,"311":0.011647832656123635,"312":0.019733742859197635,"313":-0.017892190610216848,"314":-0.07279381635288425,"315":-0.005791865552376668,"316":-0.056741361557133344,"317":0.03288602294298329,"318":-0.01059329805869761,"319":0.05047401785714502,"320":-0.04526511056018672,"321":-0.06653207549700933,"322":0.019025863895723624,"323":-0.01992522675015361,"324":0.011169005585139861,"325":-0.08733748922856989,"326":-0.004377433356425828,"327":0.05133549504789218,"328":-0.011813349770601084,"329":-0.05221730559405241,"330":-0.05610449498935248,"331":0.1253756424227047,"332":0.05389973635464552,"333":-0.059214307068185305,"334":0.028321227441663252,"335":0.027527639855892714,"336":0.03701870664352777,"337":-0.0513914090164367,"338":0.006216116160581124,"339":0.04095316745299317,"340":0.02053972458950637,"341":0.11524294302835457,"342":-0.015957667941874403,"343":0.019479986610016965,"344":0.01402246570122145,"345":0.07294436482471833,"346":-0.07623193427422432,"347":0.006700197394961006,"348":0.052680931260688756,"349":-0.007257425459370345,"350":-0.04513570293558179,"351":-0.03723214929174014,"352":-0.026874579647947597,"353":-0.00623974963358118,"354":0.00828954453092781,"355":0.03309932715686809,"356":0.007479409096017349,"357":0.06468177352680105,"358":0.010476465791382963,"359":-0.06650224271537478,"360":0.010019027518315977,"361":0.04186751335605632,"362":-0.03776201077215218,"363":0.05873057240973405,"364":-0.00012036101000129296,"365":0.0671713171527511,"366":-0.011629295344828134,"367":0.10091429573234431,"368":0.05029451370259512,"369":-0.01401803816024287,"370":0.08712580700267838,"371":0.05104946692246653,"372":0.03148681390547093,"373":0.03111800739491241,"374":0.04723083755397066,"375":0.00029438694521532604,"376":-0.002575137796541889,"377":0.015125652911749452,"378":0.014325133845521785,"379":0.07172618957032068,"380":0.025386551457924122,"381":0.028729948418932765,"382":-0.030560794055506352,"383":-0.013830926338248862,"384":0.008382057783176706,"385":-0.06709711910928912,"386":0.00624148107725202,"387":-0.02421464208590939,"388":-0.05536480243551133,"389":0.046777502736323626,"390":0.02365655204777835,"391":-0.025402726953492074,"392":0.04512003978874491,"393":0.027922193284870014,"394":0.05884587474394014,"395":0.01405326590435654,"396":0.06598771078377778,"397":-0.013731501201502622,"398":0.03730994603852086,"399":0.028951703125209706,"400":-0.042459615666199435,"401":-0.0016504851762598415,"402":-0.10611458132114604,"403":-0.06755981428948636,"404":-0.007816845336873556,"405":-0.044648542138798535,"406":0.07508344097967226,"407":0.021895689821238306,"408":0.0626889149786587,"409":-0.007408693736054123,"410":-0.014060510360781233,"411":0.09137638455082454,"412":-0.020526050101869836,"413":-0.020716889410212422,"414":-0.08317050191264722,"415":0.020359320807689336,"416":-0.009693072451791868,"417":-0.02195776543416461,"418":-0.0028054836959393566,"419":0.029822014671400658,"420":-0.05489300711070349,"421":0.058004722621574134,"422":-0.01093347418451779,"423":-0.08570739957257645,"424":-0.016938850801908437,"425":-0.060478161397302416,"426":-0.023450559806996542,"427":-0.008698798336271728,"428":0.024187076932943898,"429":-0.07792502197580989,"430":-0.06315142063754639,"431":-0.06605426001202214,"432":0.07766447042518539,"433":0.03444891561658833,"434":0.0016186507116916628,"435":-0.009903575516593864,"436":-0.030074569424166496,"437":-0.017108314025962315,"438":0.024510015940382962,"439":0.052915565078211366,"440":0.01200684072203055,"441":0.08063536651747541,"442":-0.01754955427310039,"443":0.08762849361187956,"444":0.0815763061221674,"445":0.0059994986051903005,"446":-0.05304600920259854,"447":-0.015959166581642703,"448":0.021922361181475475,"449":0.08614419025923858,"450":-0.07388802121864856,"451":-0.03195871665191761,"452":-0.004506624582915787,"453":-0.05082625645849467,"454":0.02444891999718811}},{"sx":1,"sy":1,"depth":455,"w":{"0":-0.0022720985766024205,"1":-0.09639163760493259,"2":-0.06013141075246579,"3":0.05921007399038987,"4":0.0004338549782753115,"5":0.011685528019944168,"6":-0.0007205533772325751,"7":0.02566855319217529,"8":-0.03298193595176025,"9":0.050531068451007764,"10":-0.008605123094397073,"11":-0.012629209596333912,"12":0.004277644697164539,"13":-0.05242800864693228,"14":-0.07732799226583716,"15":-0.03008513082680841,"16":-0.10255986816435879,"17":-0.0007844475583476141,"18":0.1054832211987642,"19":-0.061649972958734166,"20":0.011912926100164907,"21":-0.05237301858909306,"22":0.015049927856086082,"23":0.057783594074763085,"24":0.06953111799561257,"25":0.009565802331873546,"26":-0.021365768778377082,"27":0.011799416327455844,"28":0.01084511113867043,"29":0.037481884912333056,"30":0.06016763156760854,"31":0.05098451305895066,"32":0.014683943727873662,"33":0.04939276319646093,"34":0.09929552982137191,"35":0.0016059341048713842,"36":-0.01190393870032307,"37":-0.11845819043597514,"38":0.12675158015709345,"39":-0.08554551374861538,"40":0.012633560899505077,"41":0.07821304993523412,"42":-0.004153354235034354,"43":0.01724172088934308,"44":-0.09013533935147779,"45":0.04963428154847508,"46":-0.0057100404201909215,"47":0.012564506761812727,"48":-0.059194096570253846,"49":-0.060712950007264455,"50":-0.05498868705836551,"51":-0.0037147903845413813,"52":-0.028010602753887053,"53":0.013989094733927268,"54":0.009997494003161814,"55":0.04311710852678199,"56":-0.0751801425217617,"57":-0.056447437796356116,"58":0.020203576798986947,"59":0.009419457458187022,"60":0.022171485713302134,"61":0.022762372602898595,"62":-0.04386438550193346,"63":0.15859535529900953,"64":-0.029303962342359026,"65":-0.0028455012753016936,"66":0.09272755714037556,"67":-0.12081886959105377,"68":-0.04458161722471482,"69":0.029913558127920098,"70":0.0063486410548864326,"71":-0.03497476715476923,"72":-0.03987832985186374,"73":-0.05132166908126266,"74":-0.0386147014317869,"75":-0.03950366144037361,"76":-0.07022311684869638,"77":0.05240923759049712,"78":0.02914881938377718,"79":-0.014405508241041764,"80":0.09425175265997567,"81":0.022404765632346044,"82":-0.07757790358967245,"83":-0.05729856188286387,"84":-0.04046946192687252,"85":0.04356456538406018,"86":-0.026971401740145957,"87":0.05923821773219892,"88":0.01744483424579141,"89":0.025162272473936268,"90":-0.007283797475417476,"91":0.08534894709557435,"92":0.1120415716617136,"93":-0.0012814675709107875,"94":0.010334069712499835,"95":0.023557042567103764,"96":-0.12612640079283535,"97":-0.025687313517532617,"98":-0.026130721981621467,"99":-0.007334310220486893,"100":0.01472683070257149,"101":-0.08037508444583293,"102":0.014471724655521545,"103":0.04295820942083443,"104":0.0889075493439165,"105":-0.020667910519616944,"106":-0.034874586167341216,"107":0.05933614597464655,"108":0.05358927942792077,"109":-0.004792227469241663,"110":0.06071521572329417,"111":0.01920205649436249,"112":0.00735171064389772,"113":-0.032836826214474306,"114":-0.09474380178473693,"115":-0.06340560221434682,"116":0.04283238890489844,"117":-0.04890471331625484,"118":0.02418980867621791,"119":-0.04142116371972493,"120":-0.11552462020785612,"121":0.059785544189885916,"122":-0.005935347618387058,"123":0.07039567355604925,"124":0.04055211537288496,"125":-0.018114129928371726,"126":-0.01802126654930211,"127":0.01728408040757961,"128":-0.059423202877152845,"129":0.045411866985971425,"130":-0.05214161399207904,"131":0.02234310784768783,"132":0.03082937101655003,"133":-0.04567602837493427,"134":0.016243136373625535,"135":0.01755536742961742,"136":-0.016335996891334473,"137":-0.000027940689100758193,"138":0.03000983567619483,"139":-0.0028913150378889366,"140":-0.022680582764707833,"141":0.05854873413297995,"142":0.006282791148796712,"143":0.04667843862563809,"144":-0.07161829812427377,"145":0.0035422515492321348,"146":0.02489486310235659,"147":-0.001493092704845755,"148":-0.07191055820359883,"149":0.07939881015835741,"150":-0.013841506069831972,"151":0.05435132657053993,"152":-0.005719077052900736,"153":-0.07980707680030472,"154":-0.0324942765898087,"155":0.026890150478881242,"156":0.004894172703093127,"157":0.06374952440817022,"158":-0.06009554544865376,"159":0.017136099031066537,"160":-0.04295793188382266,"161":-0.030735777059980342,"162":0.021432973556679624,"163":-0.0918596081909523,"164":0.01596302238366003,"165":0.007285193106017517,"166":0.07145116770921615,"167":0.03770015985787599,"168":0.014987553183439176,"169":-0.027140086291034142,"170":0.035560589537878905,"171":-0.007928066278786294,"172":0.058044597640288395,"173":-0.026561016441221004,"174":0.022128208423898288,"175":-0.004555782763726591,"176":0.015063398607591254,"177":-0.021698144909758316,"178":0.013828249981590244,"179":0.030184223778508924,"180":0.011193696141024079,"181":0.008352991267297978,"182":-0.01258911196490994,"183":-0.1122301939900894,"184":-0.07188450369233254,"185":-0.060351523391758886,"186":-0.028503128777724512,"187":-0.029701139221354065,"188":0.07489322411592576,"189":0.10370752224963727,"190":-0.015084339404390221,"191":0.06670152203548634,"192":-0.044597172919025554,"193":0.07986541508549155,"194":-0.011276485025624217,"195":-0.04515513602341296,"196":-0.03933097750905263,"197":0.05291382454482797,"198":0.04427934711347269,"199":0.09156988544955824,"200":0.007125800407306848,"201":0.038641563645548105,"202":0.008840904763137208,"203":-0.03279839721853531,"204":-0.003842348774706691,"205":0.1370745726952525,"206":-0.07067004018055655,"207":0.0250588369187495,"208":-0.02813466425307359,"209":0.058236425795681876,"210":-0.08098200812198444,"211":-0.0433111154922158,"212":0.043511212558656365,"213":0.05603265022863768,"214":0.03739925879142418,"215":0.047004705673586104,"216":0.03566065148346966,"217":-0.00997852365033537,"218":-0.012364416660526829,"219":-0.06310531258579904,"220":-0.003436266690670372,"221":0.042523652040234464,"222":0.04348810657684075,"223":-0.028364176742567505,"224":0.034246462670089156,"225":-0.012915910640143021,"226":0.004106902080184021,"227":-0.046293220308491104,"228":-0.0462667995709575,"229":0.05035865381574022,"230":-0.03888775174922764,"231":0.045876582422476594,"232":0.04142378768286326,"233":0.0532966738041684,"234":0.07395011623822031,"235":0.0009632704078710518,"236":0.07683522061995182,"237":-0.053397174018339266,"238":-0.024672447854018835,"239":0.027825764847053524,"240":0.04586834329000512,"241":0.06481082950707995,"242":-0.007620787998879091,"243":-0.009229828299284912,"244":0.03864788848520416,"245":0.03032636402758795,"246":-0.05162158040318149,"247":0.07476948692284768,"248":0.047875917400042774,"249":0.08170069184097865,"250":0.0032775283768839195,"251":-0.04033808545573516,"252":-0.0008833031143617925,"253":-0.011828859197721012,"254":0.05463000163057496,"255":-0.029211977836442627,"256":0.04166271669419381,"257":-0.046099090685907014,"258":0.049974786074312535,"259":-0.055810242835719115,"260":-0.10309097770810703,"261":-0.043885371154105735,"262":0.0011153201989362548,"263":0.05593447799077778,"264":-0.04171391990837894,"265":0.017405265253192824,"266":0.03910951238694658,"267":0.022191883390636016,"268":0.0015203635250313834,"269":-0.014420303892122193,"270":0.004143753473799203,"271":-0.009801527754766007,"272":0.004148292345848419,"273":0.04934549574930447,"274":-0.09463487548009139,"275":0.019413524567243285,"276":0.07442197414425744,"277":-0.024816431145002024,"278":0.07982967535247792,"279":-0.025127342641326662,"280":-0.023022169379210502,"281":-0.017856149411519386,"282":-0.049663516017013444,"283":0.020219704020842708,"284":-0.009312039328722072,"285":-0.004225581366643966,"286":-0.03613179897098825,"287":0.13475497696822755,"288":0.009526617732294244,"289":-0.007132474410419053,"290":0.027248010182962395,"291":-0.016180228463536506,"292":0.009557111030719845,"293":-0.005627855650017116,"294":0.02362761834175719,"295":0.03810795533149167,"296":0.043623293793341705,"297":-0.018557818796460457,"298":-0.0589791180682466,"299":0.04233759400243169,"300":-0.04064478630373718,"301":-0.04970942669888788,"302":-0.04267832276385613,"303":0.025026075435518047,"304":-0.01798393446906285,"305":0.0013375126916944553,"306":-0.021333401580440628,"307":-0.05855681409457603,"308":-0.10267756287698881,"309":0.016589753477600337,"310":0.04153671066857239,"311":-0.005538951723631501,"312":0.0436673851330725,"313":0.09606904593163079,"314":-0.09050543883355901,"315":-0.026088520756640917,"316":0.061673047698034736,"317":0.05072732036336564,"318":-0.09468229187014586,"319":-0.02576798955193786,"320":-0.006296536631613684,"321":-0.07730717227874356,"322":0.028208820063802622,"323":0.01160108308031164,"324":0.09013433997835985,"325":0.019246783822445917,"326":0.05174536446672133,"327":0.0571526443443225,"328":-0.06370699857076646,"329":0.030212717454023298,"330":-0.08248684142071029,"331":-0.05996028641557456,"332":0.07974971427097576,"333":-0.08297667330410173,"334":0.05844612500803591,"335":0.028726284744376794,"336":-0.016724413377338848,"337":-0.005521302553223628,"338":-0.002364114937396862,"339":-0.12852918448120723,"340":-0.0614419829459736,"341":-0.055236872794979186,"342":-0.013038867006902433,"343":-0.0036644880117287816,"344":-0.046836701091809325,"345":-0.03149378528383014,"346":-0.04248748625484778,"347":-0.04403302195812175,"348":-0.003264784345818554,"349":-0.04409497065574958,"350":-0.013880474853164019,"351":-0.04597496473427047,"352":0.009164186422180242,"353":0.011426745891875914,"354":0.0605684249257611,"355":-0.056105228310696593,"356":0.04884660629033702,"357":0.07697529900887967,"358":-0.04832689215869472,"359":-0.01192094913141197,"360":0.043784229773345,"361":-0.06191481763912764,"362":-0.04627202745938155,"363":0.0018000125061876761,"364":0.0011104519611715804,"365":-0.020934979218620677,"366":-0.043673331080433114,"367":0.014149757624415987,"368":0.03208140720454284,"369":0.05042472667474068,"370":0.00040583672728344806,"371":0.05215296468723036,"372":0.025891710440451417,"373":-0.005369866796062818,"374":0.003325146909109872,"375":-0.02247636694074267,"376":0.004644037252645765,"377":0.017549418591121177,"378":-0.07990400527507992,"379":0.00594583373866404,"380":-0.011043160924646165,"381":0.037196778646297696,"382":0.0034237119200356807,"383":0.01261897811318488,"384":0.11126418743405125,"385":0.09335650473157674,"386":-0.032710593872476705,"387":0.010592222553167711,"388":-0.05878457987381205,"389":0.11658715496755617,"390":0.008364288657788599,"391":0.042633150134605294,"392":0.08124201610510046,"393":0.016580532795299988,"394":-0.04320426322552443,"395":-0.020765062503114766,"396":-0.043608936582029335,"397":-0.06759498933749471,"398":-0.04019118954005623,"399":0.012307009631520422,"400":0.013250939849675415,"401":0.0050400386138985615,"402":-0.0033245963576177136,"403":-0.05051164496729436,"404":0.011084095832174994,"405":0.018580668365956548,"406":0.0003048234490104933,"407":-0.0515329830345654,"408":0.04429041594435723,"409":0.023899772408406232,"410":0.011249264011537226,"411":-0.047638305251635364,"412":0.018227322301964,"413":0.015755324643359627,"414":-0.0009292369796394109,"415":0.0260484231131425,"416":-0.010599853176318967,"417":0.009344920989588341,"418":0.05603759001220094,"419":0.07819632608169652,"420":0.12875359232086553,"421":0.07545473114034063,"422":-0.08413747360091099,"423":-0.08641279060028931,"424":0.06802979070813903,"425":-0.06743266659053937,"426":-0.009401764458756108,"427":-0.019065535167932725,"428":0.030652734522974394,"429":0.013143058053619625,"430":0.003798541831981617,"431":-0.008597219956396231,"432":0.12799294168777242,"433":-0.04223978067403973,"434":-0.0644353252929217,"435":-0.0023135674811606997,"436":-0.025204681747328456,"437":-0.0168771239105174,"438":0.03783756164720849,"439":0.021764381335311386,"440":-0.0337366363317022,"441":-0.006279581565765896,"442":-0.05020473702734973,"443":0.04825910207286916,"444":-0.018355340984322108,"445":-0.021168593996758387,"446":-0.02859559380860882,"447":0.04296299940568964,"448":0.10088949142628258,"449":-0.06768523960092188,"450":0.0432947306935697,"451":-0.05766055763115609,"452":0.027774679613171607,"453":-0.08153806626060094,"454":0.00027299245213685406}},{"sx":1,"sy":1,"depth":455,"w":{"0":-0.0072995066700401335,"1":0.05599641313937149,"2":-0.03946923590970831,"3":-0.026972724023030324,"4":-0.06915630160477143,"5":-0.050532285132637626,"6":0.02530244716356126,"7":-0.09653584521279497,"8":-0.02963073494584801,"9":-0.025559178943626876,"10":0.03873861553346017,"11":0.029558286998495015,"12":0.030548960578039294,"13":0.13940336300152084,"14":-0.02284527232572764,"15":-0.015272790188472024,"16":-0.059017458964174783,"17":0.029142909787545652,"18":-0.03266291716834669,"19":-0.004588235184037646,"20":0.006786682953224126,"21":-0.016012322017773962,"22":-0.053687426120203045,"23":-0.010921689460000203,"24":-0.07552508183466485,"25":0.011201667002897207,"26":-0.020381688583516137,"27":0.030234324961116766,"28":-0.07617043795854352,"29":-0.0002849096349007239,"30":-0.04739726252601651,"31":-0.011071411890198796,"32":0.07757606679038015,"33":0.02920056735254034,"34":-0.023249581296539326,"35":0.022770840038735512,"36":-0.050987613359896565,"37":-0.12802795936405184,"38":-0.10311849907623251,"39":-0.04075827075917614,"40":0.011269511455771557,"41":0.03617492058563758,"42":-0.03962247300256367,"43":-0.07344725752065004,"44":0.01037980008788488,"45":-0.02637404944211103,"46":-0.09491370000340765,"47":-0.03658496263925231,"48":-0.010484076039576377,"49":0.14787798653476125,"50":0.039952250775304905,"51":0.012110494263960131,"52":-0.05858488591177572,"53":0.028754908557320012,"54":-0.013661618193312042,"55":0.04393898463711923,"56":-0.00046763082674942193,"57":-0.014006467821532885,"58":0.05555167169053711,"59":0.05828069505656272,"60":0.031166729624375885,"61":0.05173834315114129,"62":-0.026835346578033485,"63":-0.058025429344379466,"64":-0.057889743926779404,"65":0.08255227974474205,"66":-0.016734604991732308,"67":0.039569388996767055,"68":0.021181517486133616,"69":-0.033695304970223,"70":-0.03950207172345014,"71":-0.04373808610393152,"72":0.048017104033159834,"73":0.05698440661978274,"74":0.014765731869622914,"75":-0.07931689364710268,"76":-0.02110436058428622,"77":0.0009621121804267821,"78":-0.006000309592080697,"79":-0.022387111682440897,"80":0.015744226441254606,"81":0.055630932128329084,"82":-0.0912414706073226,"83":-0.020511342367524193,"84":0.008425884469497647,"85":-0.012455517235835796,"86":-0.046864732539391225,"87":-0.013289331118432267,"88":-0.002625855902352394,"89":-0.05243385699446722,"90":0.047941210818759294,"91":0.03789237239996042,"92":-0.03886530568461856,"93":0.044440484148180845,"94":-0.008799400987651024,"95":0.023799377777352648,"96":-0.014947956435034536,"97":-0.01139078220887066,"98":0.08975098133162179,"99":-0.09196932972578326,"100":-0.06186873061029313,"101":0.04290370755891074,"102":-0.004388458675641431,"103":-0.04642172144660664,"104":0.07467142508820529,"105":0.012825305301731064,"106":0.0628480781652259,"107":-0.015692991870071872,"108":0.05629853410877581,"109":-0.017404279772858185,"110":0.0027636160098362694,"111":-0.007923065352417226,"112":-0.01690861411342124,"113":-0.06010888646364382,"114":0.023647372127754297,"115":0.0461878521947309,"116":0.00596713631299419,"117":0.07032397667685263,"118":-0.08130120775729152,"119":0.06688612622055556,"120":0.01023098800545333,"121":0.058902119609584504,"122":-0.07239858164354743,"123":-0.1296728668088886,"124":0.047774600304758455,"125":-0.06326218005021218,"126":-0.03330915778573046,"127":-0.03265003711322481,"128":-0.026174354004386627,"129":0.007933995406450208,"130":-0.08995869278922804,"131":-0.03452027323630248,"132":-0.07947269620754006,"133":-0.03150109395142931,"134":0.03198033163438645,"135":0.038171618295956444,"136":-0.01556466857353719,"137":-0.030662301744717495,"138":-0.010245611132826366,"139":-0.02977655637966811,"140":-0.05869245036146677,"141":-0.05609177384866604,"142":-0.036279288352545055,"143":0.01943398002015637,"144":-0.003257735477439132,"145":-0.08859806006845657,"146":-0.012999477584270482,"147":-0.03463371467032449,"148":-0.004021183850441271,"149":-0.07221431742791638,"150":0.053140600863981514,"151":0.0024239685724281004,"152":-0.03432195435810536,"153":0.06482964178791639,"154":0.03136756255668972,"155":0.10760084318054934,"156":0.06785155727387769,"157":-0.0062392447211455865,"158":-0.04195083632513771,"159":0.017035335787552768,"160":-0.07222225476516526,"161":0.06462310530179692,"162":0.008050670794296055,"163":-0.019127858056584866,"164":-0.024887332337666282,"165":-0.024964284830535314,"166":0.032039520176485266,"167":-0.013175300258002736,"168":0.027899415789135774,"169":-0.05090249749165591,"170":-0.030523731653857578,"171":-0.06586937839573563,"172":0.014973531054970455,"173":-0.011788323145556164,"174":-0.054290833004612814,"175":0.04713721715853314,"176":0.054142983980583856,"177":-0.03446255147588224,"178":-0.08516721893655524,"179":0.02283614192945032,"180":-0.025214784348764167,"181":-0.04762924769984071,"182":0.03796406708745297,"183":-0.009332197457737196,"184":-0.004202896444404569,"185":-0.0007417393856320253,"186":0.0013088985376386207,"187":-0.02742718807730384,"188":-0.0312351335275615,"189":0.0017776562263332842,"190":0.04158115451543159,"191":0.005328408130720034,"192":-0.0037423992646794563,"193":-0.08650271535173314,"194":0.0717578542546186,"195":-0.03285832527142273,"196":-0.021286786517406935,"197":0.04723254699199735,"198":-0.02291561570924226,"199":0.0847857953450081,"200":-0.02463836749696325,"201":-0.04257456048878583,"202":-0.016404802877848037,"203":-0.06521720200052233,"204":-0.03408409610917448,"205":0.002853218047885377,"206":0.011039505350724385,"207":0.08748876575668416,"208":0.062394859652944834,"209":-0.0486233303241385,"210":0.0229601976788076,"211":-0.021937305541438565,"212":-0.03557656048911444,"213":0.04677131555962921,"214":-0.011984043479176247,"215":-0.01213114904873322,"216":0.05744636964401059,"217":0.002078419860180857,"218":0.010238637888620462,"219":0.07267536564978672,"220":0.049071385208103106,"221":-0.011437082262231047,"222":-0.03244302343357709,"223":0.03233613049525405,"224":0.07678925838935405,"225":-0.04282805096665161,"226":-0.04484212906667242,"227":0.028398053806348952,"228":0.00757716769416757,"229":-0.07145450986386194,"230":0.08279733628928149,"231":-0.03185123074810784,"232":0.07426723009627632,"233":0.05138158692777965,"234":0.0353850807613938,"235":0.003541685741471005,"236":-0.06681954568725777,"237":0.01283513173136695,"238":-0.05585427026733844,"239":-0.022040492044784896,"240":0.010936743924966796,"241":0.00195789867075508,"242":0.0372202876375008,"243":0.007576924933026725,"244":0.03458177745192629,"245":0.02647429520269792,"246":0.000462834468658653,"247":0.003584440931263252,"248":0.042767994322002914,"249":-0.06505238880188909,"250":-0.05510697186296803,"251":0.02917422585026732,"252":-0.048468580795657024,"253":0.006658637004874021,"254":0.0399066395554645,"255":0.02126915923739515,"256":-0.03369611038265424,"257":0.005878256969112934,"258":-0.023721889384078022,"259":-0.001493281388927881,"260":0.04371542545105758,"261":-0.012764271505811872,"262":-0.02819195855062894,"263":-0.01764106146150761,"264":-0.04384811809081861,"265":-0.023389295759760297,"266":0.018962583083044778,"267":-0.03810682032408453,"268":-0.03431861333968296,"269":-0.007252301287042118,"270":-0.018653095859472203,"271":0.04660246335852691,"272":-0.0029482491276952,"273":0.0033776274233722346,"274":-0.016790752469002385,"275":0.08892415061042672,"276":0.09417398477955445,"277":-0.005955477470972156,"278":0.10096171750569874,"279":-0.041345913722070554,"280":-0.03862204356979895,"281":-0.04031048242833314,"282":0.04044908290842737,"283":0.043480746710790386,"284":0.009682476505224807,"285":-0.023105051028647086,"286":-0.030407080380522613,"287":-0.04464352941909289,"288":-0.07779495529286974,"289":0.09222668860686706,"290":0.022225802875663135,"291":-0.029233687764204683,"292":-0.02430780357555732,"293":-0.04680433265622724,"294":-0.017210665716198174,"295":0.013750933670250152,"296":-0.040106007338651266,"297":-0.055961876050005945,"298":-0.049209773667352394,"299":0.045860230558183154,"300":-0.000824597887858723,"301":0.05038575009765172,"302":-0.03319063862684511,"303":0.042519249351748216,"304":-0.01602194819770978,"305":0.014254371910408273,"306":-0.040844749434591786,"307":0.01889944085854884,"308":0.05257288894322873,"309":0.026172489362180425,"310":0.11342598155155806,"311":0.05347548396509626,"312":-0.015197014980315428,"313":0.022848237414412997,"314":0.047758206084528174,"315":-0.028912710343898192,"316":-0.010908828484726109,"317":0.04533156212006166,"318":-0.002556547848043612,"319":0.058281095965025516,"320":0.05965489561191005,"321":-0.00029006267482714404,"322":-0.05153851783457917,"323":0.03712914570607736,"324":-0.005062178467562069,"325":0.008005927700665567,"326":0.07060536245461944,"327":0.043847421512874164,"328":0.054440742069057635,"329":0.0044718607575019295,"330":0.0746140476713504,"331":-0.020446709278612946,"332":-0.018290059561180145,"333":-0.006424716881622918,"334":0.029974799307695813,"335":-0.007792323422647592,"336":-0.0010692562766574838,"337":-0.0099961788757983,"338":-0.006983264751184084,"339":-0.03847816761931158,"340":-0.0071275294979953555,"341":-0.03886450652092648,"342":0.012907142153996996,"343":-0.034556994417643816,"344":-0.03879559282178188,"345":0.04064098349076388,"346":-0.0489039515637144,"347":-0.05511731487702278,"348":-0.033629834238881655,"349":0.02812419371451991,"350":0.06134919889843486,"351":-0.01949192052780975,"352":-0.061480472343252796,"353":-0.01589073097787144,"354":0.028690119866820154,"355":-0.11143267754438373,"356":-0.050794492485052904,"357":-0.050169782744678905,"358":0.06698662125455207,"359":-0.05238963457761478,"360":0.01530813691600501,"361":-0.06216971522658761,"362":0.0015946232296009627,"363":0.02636197220029615,"364":-0.06744284863312927,"365":-0.018796599601935464,"366":-0.0408202299338929,"367":-0.043770522533656146,"368":-0.053776849523325086,"369":-0.018372939851798196,"370":-0.015230309960480868,"371":-0.02276048089506225,"372":0.08122260298005582,"373":0.0507075658801482,"374":-0.008600153411727313,"375":0.0325780564957205,"376":0.014275408565740857,"377":-0.04504513282971718,"378":0.021811853142419402,"379":0.06603502031794657,"380":-0.02646774939313944,"381":-0.0044588889171171785,"382":0.04184831362595812,"383":0.08459127695269972,"384":-0.11682140296780645,"385":-0.005053403695694472,"386":-0.010584334069739845,"387":-0.010001304561609166,"388":0.05783601829175207,"389":0.019530921701896038,"390":0.027160160930876944,"391":0.014194303017597497,"392":0.02543445221928687,"393":0.0780461583399721,"394":0.029830774721540665,"395":-0.015501855873361796,"396":0.011272998904878805,"397":0.036176077775958826,"398":-0.08082020018236742,"399":-0.0223123385405253,"400":0.023848310821303887,"401":-0.08652851249400824,"402":-0.0016883394887211175,"403":0.026311126370084422,"404":-0.01942752902952036,"405":-0.004599391515495102,"406":0.06179403432128833,"407":-0.007234216817465276,"408":-0.04329608136954188,"409":0.02834667805881395,"410":0.0790796405539767,"411":-0.013775688161144918,"412":-0.08499255829768572,"413":0.034593148891030226,"414":-0.03210207223156376,"415":0.05154405477807077,"416":0.046263219017656676,"417":0.03947397584304741,"418":0.07565320571157125,"419":-0.01717776696458122,"420":-0.02326089410957846,"421":0.06575876106109095,"422":0.04490744703302026,"423":-0.018509709671502037,"424":-0.03397596392419206,"425":0.02224483276352689,"426":0.0038549187889884286,"427":-0.031465453228516474,"428":-0.07412473697055755,"429":-0.011075194767911387,"430":0.04168771915517486,"431":-0.007493652655833168,"432":-0.06390103580966965,"433":0.06643252560242892,"434":-0.02949653008193223,"435":0.03922579215336947,"436":-0.03943544199916671,"437":-0.027650446138892334,"438":0.028896555261992272,"439":0.052409499515166956,"440":0.006081202099931823,"441":-0.055068386221273045,"442":0.052991747243456205,"443":0.012235503499229056,"444":0.004359062715695432,"445":0.04210415878137867,"446":0.0040937959757460195,"447":0.01637833550145964,"448":0.0281007859918964,"449":-0.022479069079125655,"450":0.023979614039297777,"451":0.030658432903434816,"452":-0.036694007381825,"453":-0.05098540625103114,"454":0.030086237190219026}},{"sx":1,"sy":1,"depth":455,"w":{"0":0.05496106644121101,"1":0.0586749098305995,"2":0.044981295221962335,"3":0.013135129618281597,"4":0.04704040538738454,"5":0.06653396176789031,"6":0.07978280634007992,"7":0.0016861931815244414,"8":0.012842161335762325,"9":-0.038376308620614925,"10":0.03818341298005783,"11":0.03273937112062111,"12":0.0071720482230302205,"13":-0.06041244501688607,"14":0.06748084165077214,"15":0.05189035123647614,"16":0.03687244840052524,"17":-0.012142367689586965,"18":0.014203718903055888,"19":-0.02449539490638399,"20":0.025996941679860396,"21":-0.02229447664448828,"22":-0.09603236166305214,"23":0.03409483136657468,"24":0.07681876873946493,"25":-0.043818424137048534,"26":0.04269438081465548,"27":-0.018536614056723737,"28":-0.016899178858366042,"29":0.06600856251856872,"30":-0.034311784690771174,"31":0.034797768270142804,"32":-0.010865100480386084,"33":0.006536852652312332,"34":-0.015417930849579172,"35":-0.04792350516135109,"36":0.06746600450302981,"37":-0.001481320469039734,"38":-0.010642664499945694,"39":0.07292243554016897,"40":0.024857094366099192,"41":-0.022867099936861354,"42":-0.0767815770310688,"43":0.042315087904614655,"44":0.03567233888410811,"45":0.0029427609658040314,"46":0.07219941561729905,"47":-0.062175772523910086,"48":-0.03339868488806852,"49":0.03694514905831267,"50":-0.010101996792002821,"51":0.004200473596777155,"52":0.012299844212230612,"53":0.017695467825521123,"54":-0.007418462753852524,"55":-0.005940338672997997,"56":-0.09365781997191726,"57":0.013055058323896031,"58":-0.0712705351066417,"59":0.01834077180525097,"60":0.052996342846503834,"61":0.0381296963887517,"62":0.0301630245039101,"63":-0.001024655673463313,"64":-0.04134797617859221,"65":0.05769957418231896,"66":0.0026384283770131338,"67":-0.015282445304497337,"68":-0.008757352845174213,"69":-0.05521838770459448,"70":-0.05388544528679261,"71":-0.007929680692533038,"72":0.03788455944783944,"73":-0.013971470998162991,"74":0.009664273449072726,"75":-0.0506197504936007,"76":0.028779098950032646,"77":0.03005754170018698,"78":0.003768835232767131,"79":-0.005538307988482856,"80":-0.02968018172475172,"81":0.06638082868136201,"82":0.0006041104351180321,"83":-0.01695804934038023,"84":-0.06465396788754665,"85":-0.04802808814534266,"86":0.052921977997643276,"87":-0.01773595934936685,"88":-0.01549517787826031,"89":-0.010052819857426055,"90":0.009202479715690269,"91":-0.02352509752441725,"92":-0.022933996981450006,"93":0.036409974651614024,"94":-0.035902121878254804,"95":0.04491824809769497,"96":0.029706371061712755,"97":0.009522283282642457,"98":-0.10937964793473264,"99":-0.10519625039558059,"100":0.053501700337529386,"101":-0.11640341341798346,"102":0.0036095858493194375,"103":0.003963841934370216,"104":0.058913034201695365,"105":-0.06786677339924997,"106":0.028494147706811117,"107":0.08095880033791837,"108":0.08526650144293837,"109":0.04033386355851238,"110":0.0334931841632096,"111":0.020574168630404333,"112":0.05383158693120076,"113":0.0029050718898763848,"114":-0.04881713114811507,"115":0.010147464243048231,"116":-0.001408358400741264,"117":-0.0856643299328087,"118":-0.042522492933174935,"119":0.0672807879561423,"120":-0.011946520618190935,"121":-0.004111543195650181,"122":0.02644877072187251,"123":0.017684241700731542,"124":-0.004732631696991647,"125":-0.060670202409234354,"126":-0.008527382113368745,"127":-0.010870539560778082,"128":-0.020537058286409175,"129":-0.03922124648633426,"130":0.03459499175060821,"131":0.025837130780622806,"132":0.01577179131437791,"133":-0.13283733187968405,"134":-0.04793681539824416,"135":0.014220780908106764,"136":-0.047029961097153315,"137":0.07460004863930855,"138":-0.026450221729702652,"139":-0.04596640446132887,"140":-0.06720761075654057,"141":-0.04217959995056887,"142":-0.036540789015826185,"143":-0.037612684182352384,"144":-0.07714047799413251,"145":0.051963518358588534,"146":-0.017134909738834716,"147":0.0018937742643804505,"148":-0.03350791689344861,"149":-0.0058492092426597475,"150":0.061878596467695064,"151":0.044627560095341814,"152":0.08001610327753765,"153":0.04829585253112609,"154":0.03450956750577691,"155":0.011375065718335794,"156":0.006302454215502932,"157":0.014795389824980465,"158":0.024411914362233007,"159":0.10068672250826965,"160":-0.006966045226687311,"161":0.033199076134074315,"162":-0.0054342156417143996,"163":0.10541656783577029,"164":0.06361199028926857,"165":-0.10191985722753395,"166":-0.0018114217080343353,"167":0.024221237000423126,"168":-0.03664771124201752,"169":0.014229912146270438,"170":-0.009664725504827349,"171":0.03706330296687486,"172":0.00721667132209613,"173":0.019698634315901263,"174":-0.09244566176254802,"175":0.02033161933836683,"176":-0.07223511306830176,"177":-0.007487526205984579,"178":0.07360827871314926,"179":0.011102815361632887,"180":-0.019044263667807686,"181":-0.0317688829319019,"182":0.04658882699357614,"183":0.01320444102262476,"184":0.06772940140500869,"185":-0.04038732541260582,"186":0.017965211702710832,"187":-0.006664754558220101,"188":0.04941428080493671,"189":-0.030325578095708856,"190":-0.034706610375384084,"191":0.06891583995854576,"192":-0.017830524846515684,"193":0.013785244138666898,"194":-0.05577939420556999,"195":-0.004206092258954027,"196":-0.05609869715396813,"197":0.03416873991947921,"198":-0.01850388131678878,"199":0.015037648235756281,"200":-0.07139956496514278,"201":0.09215328206107512,"202":0.004781796918818714,"203":0.05544450179482887,"204":0.05259519590057688,"205":-0.002125781431236816,"206":0.08155917769139658,"207":0.08744702382426604,"208":-0.019541515136105313,"209":0.004114549945685671,"210":-0.018296266108319213,"211":-0.06681755059918854,"212":-0.040220740955898844,"213":-0.07957805755051799,"214":0.010970326720430692,"215":0.005966416094479293,"216":0.017294544814578296,"217":-0.017354147583240963,"218":0.07526568710115475,"219":0.011809567924569527,"220":0.05585385268086908,"221":-0.062455818446232075,"222":-0.061249203540489044,"223":-0.07899581807117423,"224":0.0019059189307529714,"225":-0.001254127551873086,"226":-0.05032123421535431,"227":0.03138029346085275,"228":0.007887691439353198,"229":0.07968224007385351,"230":-0.062051840069484665,"231":0.03998038346074096,"232":-0.0310259965482581,"233":0.03841404113545343,"234":0.011936084097027507,"235":-0.134456256614085,"236":0.0179535279038695,"237":-0.054618445643611103,"238":-0.03415715555872216,"239":0.031130770007168004,"240":-0.004580431671434568,"241":-0.01232836568895556,"242":-0.04307919065949153,"243":-0.10252515879264212,"244":-0.013103197625069658,"245":-0.0622136741763721,"246":-0.042316627546302,"247":-0.025216856384279458,"248":-0.00464951657874815,"249":-0.023538804140041128,"250":-0.0683408628386678,"251":-0.02032661807210936,"252":-0.02933323934217031,"253":-0.003317092407998009,"254":-0.004722475683539502,"255":-0.007615711987905743,"256":-0.012210426107940046,"257":0.06598461593369172,"258":-0.05881055120779582,"259":0.03925176768958024,"260":0.05766045622306028,"261":-0.0216196508378187,"262":0.05403576999808266,"263":-0.0016942442119406984,"264":-0.07018903473105312,"265":0.00820211935557354,"266":-0.04086102108188901,"267":0.07994911071664329,"268":-0.053956425779274717,"269":0.012020056758601981,"270":0.03331908747222779,"271":0.03976938128909849,"272":-0.0363951711254573,"273":-0.015160141092158692,"274":-0.04598684293765951,"275":-0.02261182181346845,"276":-0.018993305590388233,"277":0.043630763434857375,"278":-0.08322449797043108,"279":0.03873071218896111,"280":-0.0077809580249846595,"281":0.0034153341380990638,"282":0.10807046924327941,"283":0.01954258251917961,"284":-0.01741876819073684,"285":0.027884513133076858,"286":0.012720065550552603,"287":0.00467691772122542,"288":-0.03495725286612129,"289":0.06390227188771515,"290":-0.012375730623664982,"291":-0.028877555719251217,"292":-0.03768788613579719,"293":-0.06355534206341942,"294":-0.018203473971111016,"295":0.028734303600831908,"296":-0.0005836958721188599,"297":-0.06490824926413546,"298":0.006532261013029368,"299":0.002810454198592452,"300":-0.06425426084038488,"301":-0.015679602281004883,"302":0.022830133810704582,"303":-0.006125450456377193,"304":-0.0081849914641064,"305":0.08368980512969802,"306":0.03252912871258841,"307":-0.07090686476170675,"308":-0.019383745413592876,"309":0.08772630173844198,"310":-0.03176912193764037,"311":0.017422813076781615,"312":0.029296991643730733,"313":-0.0055497132214740825,"314":0.031938228682831186,"315":-0.06503481586858004,"316":-0.031939495515055955,"317":-0.0028276643677777316,"318":0.07601044179924744,"319":0.02006555625830557,"320":-0.06182952318168059,"321":0.016793966853890514,"322":0.011327466019444456,"323":0.027615765589476513,"324":0.011545960331029566,"325":-0.08916394153920408,"326":-0.056457197047767665,"327":-0.05782237856441316,"328":-0.0010525936580992586,"329":0.014727811695279633,"330":0.018666322252197175,"331":0.04484854555477622,"332":0.010286324870572676,"333":0.013588386633036258,"334":0.010235013960242383,"335":-0.017909699305983514,"336":0.08868751929364863,"337":0.003946735860751336,"338":-0.06260862473319731,"339":0.016388255683633193,"340":-0.04551568044367122,"341":-0.03799966211640943,"342":-0.01045236893023552,"343":0.024053410405241227,"344":0.04919830663270559,"345":0.012868973723413085,"346":0.028100551519380203,"347":0.019175809787229152,"348":-0.07480454386808232,"349":0.02595291863853738,"350":-0.029137492766048084,"351":0.03235877784912856,"352":-0.10525680833795338,"353":0.026398356307808006,"354":-0.02822198516398929,"355":-0.04125640753649195,"356":-0.014376479548085708,"357":-0.04020163519509556,"358":-0.08124541628078485,"359":-0.034098805269355145,"360":-0.009023693412198868,"361":0.00563139326092483,"362":-0.0310257296265464,"363":0.08212641651355812,"364":0.026518072624109993,"365":-0.10069677335224039,"366":0.017725581152187444,"367":0.12317132344654039,"368":0.024061999604822935,"369":0.04819302521810772,"370":0.023498726938576405,"371":-0.003058805230827234,"372":-0.016475363354137827,"373":-0.005117752194842875,"374":-0.001663495103254259,"375":-0.0344745717715834,"376":0.004540364931500511,"377":0.054775357265862135,"378":0.07675378187463255,"379":-0.027612684396325946,"380":-0.04398136249067726,"381":0.018986250437136473,"382":-0.03426717176911659,"383":-0.06921480910202742,"384":0.04401023674359866,"385":0.028562690524526167,"386":-0.04718730227292531,"387":0.036876433074906415,"388":0.033077713220616464,"389":0.030488677811826754,"390":0.007476533660407433,"391":-0.06771048641679772,"392":0.017116359501779047,"393":0.026191329318443098,"394":-0.011121009025109893,"395":-0.018197676824835633,"396":0.0024624992164406717,"397":0.053584722619914,"398":-0.032994604152830204,"399":0.058094062838498044,"400":0.007552150052775168,"401":0.06651846889771515,"402":0.0447317200575648,"403":0.06296061035976998,"404":0.09583467937102719,"405":-0.040263829913663896,"406":0.017442556207764526,"407":-0.07899896581741764,"408":0.03350570333041372,"409":0.00826587663555426,"410":-0.10816313663381662,"411":0.03669931782926725,"412":0.03320959109183338,"413":-0.037738320379721135,"414":-0.07773818895363785,"415":0.021240833418911188,"416":0.03413598344773837,"417":-0.003331004652176056,"418":0.04849596986932335,"419":-0.030463644150938416,"420":-0.013241182782286936,"421":-0.02871695888708806,"422":-0.08590226790047888,"423":-0.0850018597377272,"424":-0.08665901691679151,"425":0.0341852896795933,"426":0.030192887118017098,"427":-0.043117984277752985,"428":-0.04130921721581937,"429":-0.012839540439067439,"430":0.0903672071006337,"431":0.08698063424839354,"432":0.013537797000799304,"433":0.08665243887959502,"434":-0.021424835080734343,"435":-0.02817594137329828,"436":-0.012010452111423552,"437":-0.11084269519704557,"438":0.05064926573209075,"439":0.05421293983167417,"440":0.06610329002462496,"441":-0.0026135683009980712,"442":-0.024431950569820705,"443":0.10049728990900875,"444":-0.055343526229218606,"445":0.007550824650060231,"446":0.03250020220810107,"447":0.02837121063909382,"448":0.04149659204997437,"449":0.02182138681073047,"450":0.04298396291825641,"451":0.006328597645785914,"452":-0.03770157492850359,"453":-0.04621609988597104,"454":-0.04060744993584327}},{"sx":1,"sy":1,"depth":455,"w":{"0":0.08482241491115412,"1":-0.020504781220341255,"2":0.040069429913577224,"3":-0.015014417319884059,"4":0.04387831616783011,"5":0.08400811383039643,"6":0.046588854265348985,"7":-0.06228671322313668,"8":-0.010307890705522064,"9":0.009287023262512347,"10":-0.039498620188807135,"11":0.06612865604052577,"12":0.005100424976962735,"13":-0.0379050014651216,"14":-0.03566780136706262,"15":-0.005150528159821474,"16":0.0684914029950935,"17":-0.00606850874883764,"18":-0.06298774739582175,"19":-0.012792315324179435,"20":-0.018804649661225276,"21":-0.02597520045792108,"22":-0.0925379670674684,"23":0.010057473674819406,"24":0.036013595007670776,"25":0.0098288619654913,"26":-0.02658787341566518,"27":-0.05510412655405043,"28":0.03239150751725604,"29":-0.06575999551774848,"30":-0.02976676271892168,"31":0.0001046424013133721,"32":-0.0030555574925592095,"33":-0.07857503323347602,"34":-0.008917801199808029,"35":-0.0773943855487113,"36":-0.006187411540566811,"37":-0.00526388488809472,"38":-0.09994969779268566,"39":0.0028623212256722267,"40":-0.03710751381923287,"41":-0.03723416340909571,"42":0.0034644700072966324,"43":-0.02269498336534981,"44":-0.013173206517185393,"45":-0.05083733047307687,"46":0.06117901805515305,"47":0.06785515370490158,"48":0.09465605094134964,"49":-0.05227775827887469,"50":-0.025638825755122857,"51":0.05013676190865585,"52":-0.1342012316190825,"53":0.007404693713328174,"54":-0.013210918594377705,"55":0.04683072837680064,"56":-0.051526077060960344,"57":0.02528305781154507,"58":-0.08926840049373888,"59":-0.12914402520549761,"60":-0.08081705362074763,"61":0.03993091873411463,"62":0.016522949334380185,"63":-0.006845537005192478,"64":-0.1068662440731351,"65":-0.0025630044062209495,"66":-0.0784779719073962,"67":-0.09701793391493095,"68":-0.03226203301960192,"69":-0.0306820622257579,"70":0.07735520665965025,"71":-0.05799732936792099,"72":-0.042867613881617375,"73":0.009300006017932502,"74":-0.03630984451265355,"75":-0.046889357440937474,"76":0.010578330723629271,"77":-0.046905334010945786,"78":-0.032060457408978386,"79":0.011242140014291828,"80":0.030971155034070365,"81":0.027573109214592436,"82":0.019120944153400043,"83":0.03780289585354231,"84":0.07412712175468598,"85":-0.019253384336251504,"86":0.055026197808742336,"87":0.04130679755874769,"88":0.015496031979944614,"89":-0.002610463347543364,"90":-0.003142783481676816,"91":0.028244081283598725,"92":0.034838864285299434,"93":-0.06668395143751935,"94":-0.010282677299491583,"95":0.018377340832995706,"96":0.0855525659549583,"97":-0.0810304143364216,"98":-0.06257863742618809,"99":0.05360305726404261,"100":-0.04797319844488085,"101":0.01644355373399405,"102":0.035061234947151354,"103":0.003091229805800293,"104":0.09257535122612912,"105":-0.031454546334544586,"106":-0.0003476016276660524,"107":-0.02219920475350738,"108":-0.06466920336313502,"109":0.01077491208267582,"110":0.07249950625692102,"111":0.0838684174392735,"112":-0.03880415605846221,"113":-0.011546099571691424,"114":-0.026483891734030037,"115":0.0014128625611097363,"116":0.08527436020924516,"117":0.07305232704635649,"118":-0.02815962444885803,"119":-0.03394466199103481,"120":0.021135946901670952,"121":-0.011471552928434839,"122":-0.04331786782594534,"123":-0.009186385561101358,"124":-0.06837967253748285,"125":0.020087848370178667,"126":-0.008146804404528413,"127":0.049605122537590654,"128":0.03837325675910692,"129":0.02776909894310898,"130":0.06674306999653704,"131":0.07061094766635,"132":-0.04595169776789372,"133":0.0005115848812484422,"134":-0.029336806753240373,"135":0.021967690979426538,"136":0.05320797501724807,"137":0.010982361425438727,"138":-0.04093636793001288,"139":-0.006208301531575007,"140":-0.029416681071273494,"141":-0.03589893482569393,"142":0.021705609100944007,"143":0.017642258870051615,"144":-0.07164047288050757,"145":0.0030887651005419535,"146":0.018765167295673693,"147":-0.04774057446077429,"148":0.008436319467070113,"149":0.06574835328162802,"150":0.003759288809071297,"151":-0.043915292422628954,"152":-0.011137910574741287,"153":0.04750887687998388,"154":-0.046578932575020084,"155":-0.030399260033859444,"156":0.020517106157340446,"157":-0.011824967323328413,"158":0.03502681149428578,"159":-0.012293886946631919,"160":0.016839424213807547,"161":0.021480632631347737,"162":0.015915208436850424,"163":0.0362853286477995,"164":-0.07120270207926813,"165":0.03195683421739636,"166":0.004865952676766812,"167":0.016725128390558657,"168":0.004901737164491703,"169":0.025045757609699886,"170":-0.027269691335347478,"171":-0.05998362823760099,"172":0.015319048358148294,"173":0.0619171711626048,"174":-0.03150287363315019,"175":0.023483336523502894,"176":0.01681900195540323,"177":-0.01727526864487525,"178":-0.029783594802263873,"179":0.10199841788358448,"180":-0.06777184087386016,"181":-0.029994848951808765,"182":-0.009635409083387109,"183":-0.0011559566421216277,"184":0.029226226441111548,"185":0.029246211111516117,"186":-0.04395865690434802,"187":-0.030586562641472338,"188":-0.003340600666717423,"189":-0.01474779147216479,"190":0.008412420201348596,"191":-0.06949804899957657,"192":-0.0037944475539355175,"193":0.02758860453943017,"194":-0.047040787573774834,"195":-0.009025638689463388,"196":0.016091913932789352,"197":-0.022802912985080196,"198":-0.02530919441040766,"199":0.03523647763451289,"200":-0.025384893417238975,"201":-0.012351029576481539,"202":0.01047059705597447,"203":0.04839742721591116,"204":-0.01218177105481672,"205":-0.01425061094111508,"206":-0.03635776121156373,"207":-0.01241237192728681,"208":-0.08017984170246219,"209":-0.014331448464498743,"210":0.017481688225912825,"211":0.022614478628100978,"212":-0.02167611952116459,"213":-0.007972505931252049,"214":-0.018115056865491978,"215":-0.0735976752467611,"216":-0.0706541743566933,"217":0.04420771370064472,"218":0.010641862968900137,"219":0.03439218378227958,"220":0.003986780557528914,"221":-0.013628523662036532,"222":0.04763710199851539,"223":0.029493190559572197,"224":0.03943114978114885,"225":-0.01350814098554594,"226":-0.014691759255064626,"227":0.02654442940115509,"228":0.05166387214763136,"229":-0.017748623938700386,"230":0.028334564819888292,"231":-0.025912334220921904,"232":0.017564061594754675,"233":0.030089519535325297,"234":-0.050576276982303034,"235":-0.028714467421497896,"236":-0.052239715032130755,"237":0.014023867762596415,"238":0.02606079173263054,"239":-0.009739517223042633,"240":-0.0662023098223144,"241":-0.050174137347024694,"242":-0.04887286172061495,"243":-0.051111523672884886,"244":-0.008459721239981835,"245":-0.028968538362832648,"246":-0.03226046394337057,"247":-0.07838805950806656,"248":0.05281240664351646,"249":0.010301197258139865,"250":0.010637322726076225,"251":0.012398259306423229,"252":-0.01855401511375395,"253":0.04952918393297515,"254":0.0007548005758867555,"255":0.028046304911397084,"256":-0.04127803816034779,"257":-0.018286125057760918,"258":0.0025184545679276917,"259":-0.027201347347079286,"260":-0.031185296564728193,"261":0.006747245367291292,"262":0.018954907945097185,"263":-0.002254701171521837,"264":-0.07829612173599647,"265":0.06433622666813456,"266":-0.0037339514590004714,"267":0.04150856615488384,"268":-0.07723853086907931,"269":0.05014641250377337,"270":0.06787789531109369,"271":-0.051963432591472444,"272":-0.044475299896511424,"273":0.018618129541105297,"274":-0.023691620180660553,"275":-0.07657732019935135,"276":-0.029777406919317007,"277":0.032422654043489825,"278":-0.041197267146465495,"279":-0.008989300283520407,"280":-0.03690374325017268,"281":-0.01164637409095173,"282":-0.04716452511490235,"283":0.012110648930411114,"284":-0.00008367040475291513,"285":-0.07358465773713099,"286":-0.051153514161612554,"287":0.02740962920027689,"288":-0.028348349297583075,"289":0.06552733930185986,"290":-0.09511969167364413,"291":0.062293022773044854,"292":0.0055894826099908606,"293":-0.00020846940482903003,"294":-0.042473943855457025,"295":-0.015321075250630182,"296":-0.0199465864490883,"297":-0.029483817716319045,"298":0.008969777446969245,"299":0.07814126574178824,"300":0.017040487888797532,"301":-0.024240443676984212,"302":-0.009977061836739095,"303":-0.02680597184989374,"304":0.005767876269124853,"305":-0.043523735668708007,"306":-0.005477486982541984,"307":-0.03424024510802998,"308":0.061381734765392604,"309":-0.042279145849439745,"310":0.012901867021617108,"311":0.05864966398721674,"312":-0.09801494411753221,"313":0.02517659187754004,"314":-0.04542466557798192,"315":-0.04592948761083251,"316":-0.0310449293273377,"317":-0.03950628988469542,"318":-0.005199422805929904,"319":-0.06215045623610865,"320":0.007505550744227857,"321":0.0009560148733035445,"322":-0.0073207306542841044,"323":0.04739810747556066,"324":-0.10466795581811933,"325":-0.07209898929335505,"326":0.018373740422786805,"327":0.020387632238099272,"328":-0.05664967839385025,"329":-0.01854304725160386,"330":-0.0690834160645088,"331":-0.07947755434460388,"332":-0.03493614527738714,"333":-0.014503981217621384,"334":-0.0061521488480904924,"335":0.04437374373416167,"336":-0.08023582897835463,"337":-0.0046962449016328105,"338":0.004817371744877639,"339":0.015301616933342714,"340":-0.015002249543119574,"341":0.010032374312678166,"342":0.06310184118656617,"343":-0.10712569888350593,"344":-0.0010231113866709775,"345":0.015060779045754251,"346":-0.08927258667046757,"347":-0.035985579035390056,"348":-0.03423555250694946,"349":0.024799769826417246,"350":0.010453010402302464,"351":-0.044552694062789354,"352":-0.0052589185190366405,"353":0.020384986137592803,"354":-0.00447444365958697,"355":0.024925611066014503,"356":-0.020924238044766966,"357":-0.025207883178308865,"358":-0.027446727697386278,"359":-0.025920386467063787,"360":0.010295927866558694,"361":-0.061123382728457396,"362":0.04739775506111771,"363":-0.010910593718863463,"364":-0.016031736333348614,"365":0.01734072683773977,"366":-0.05844082326307805,"367":-0.06147380912321879,"368":-0.0640823224230357,"369":-0.06447929309508327,"370":0.057541936681948534,"371":0.014822975131484697,"372":-0.002567467513874067,"373":0.06783780114141229,"374":-0.01586611069028186,"375":0.01779223671504678,"376":-0.12720142204926835,"377":-0.023956612009843233,"378":0.01862918786292579,"379":0.043145878089157284,"380":-0.03946015383611659,"381":-0.0944436913088685,"382":-0.03382556414512286,"383":-0.054525298012383136,"384":-0.01358999872248365,"385":0.0691230640981903,"386":-0.04810091997645785,"387":0.04556255204430382,"388":-0.03422950028338147,"389":0.0857580042590853,"390":0.06264313933769701,"391":0.015429274819290623,"392":0.04364021856940576,"393":-0.07562495201873441,"394":0.0012073789239166772,"395":0.033976199527073724,"396":0.027391949479652865,"397":0.025829018380292904,"398":0.09216322310851231,"399":-0.045192918892461784,"400":0.0879153712638417,"401":-0.06679707360473423,"402":-0.00015518149785019253,"403":0.05172845548222706,"404":0.0494713520525484,"405":-0.002425173266700905,"406":-0.07359006282640777,"407":0.057040465660816594,"408":-0.000381932245468427,"409":0.014219263087053919,"410":-0.00686927876676079,"411":0.010559846851045248,"412":0.0004979394982783907,"413":-0.016717882763401273,"414":-0.04668621973765685,"415":-0.02767014145488289,"416":0.008422972186022315,"417":-0.033054230354719286,"418":0.0860042027175628,"419":0.036303827368735136,"420":-0.01043528919875905,"421":0.06749275744500849,"422":0.02499627328581342,"423":0.02705966602177823,"424":0.030851724884681082,"425":-0.0967294781597091,"426":-0.010076183462154496,"427":-0.0010424133619476076,"428":-0.04053092438745159,"429":-0.06219684287977367,"430":0.02060236058619442,"431":0.02308374312360268,"432":0.0029558877222267957,"433":0.03423711036960465,"434":0.06176706013700944,"435":0.0029065221609379673,"436":-0.049145544473200034,"437":0.012466817721208227,"438":-0.020847053017321742,"439":0.006663268825799631,"440":-0.08204421814998361,"441":-0.026613119264290032,"442":-0.06711614074361354,"443":-0.04404746631671151,"444":-0.03556388287748607,"445":0.053572255666956656,"446":-0.05335767437883804,"447":0.021359301558022254,"448":0.04748886300675347,"449":-0.08814344226846953,"450":0.03500454317041639,"451":0.04377544323195258,"452":0.0942774743020676,"453":-0.05115786838987202,"454":-0.06987233725900416}},{"sx":1,"sy":1,"depth":455,"w":{"0":-0.01193229362771526,"1":0.058914834995118404,"2":0.0351017837724853,"3":-0.007133084418863658,"4":-0.04305358701776552,"5":0.005485945313631624,"6":0.02929825370966211,"7":0.04858808656416074,"8":-0.003257077997925602,"9":-0.04920481907624178,"10":0.025875009004377714,"11":-0.0893271494939232,"12":-0.0408315783069375,"13":-0.008164771566223666,"14":-0.000008430173653016583,"15":-0.0673127046429359,"16":0.015538659867068169,"17":-0.008102790827996288,"18":0.09069565866335436,"19":-0.011662947977082361,"20":0.04930399739044886,"21":0.021268685927961106,"22":0.023887907819455993,"23":-0.06646261963919345,"24":-0.07088971816426232,"25":0.018197215430382614,"26":-0.10559866202387637,"27":0.0020731825788461284,"28":0.05042248658895156,"29":-0.016843468621329554,"30":0.005924078250172072,"31":0.05840213881579674,"32":-0.00017190976041076396,"33":0.017997794076218283,"34":-0.004072047760684594,"35":-0.023034095308033985,"36":-0.019780953655633853,"37":0.023533334011546485,"38":0.01947628655182784,"39":-0.033762543233880137,"40":0.07163692893912904,"41":0.03232355292274035,"42":-0.001432910172028041,"43":-0.019961585024261687,"44":-0.04328287921570184,"45":-0.06394905502321664,"46":0.04295655122874701,"47":-0.032283553572682255,"48":0.020309955792147467,"49":-0.025621445830193636,"50":-0.023753063104227232,"51":-0.004801657615140993,"52":-0.03467028118346228,"53":-0.02214545686104844,"54":-0.10357120240257967,"55":-0.00841603779081541,"56":0.05180691508855023,"57":0.03946167345232503,"58":-0.01900290205782549,"59":0.05019959154847588,"60":0.06054299040414212,"61":-0.07252973381570633,"62":0.0003774296916916437,"63":-0.020284996735194596,"64":0.013635340074662767,"65":0.022920235455489654,"66":-0.04423880898637359,"67":-0.010977286377653044,"68":0.009864458796045247,"69":0.05137381269948185,"70":0.001188050217844017,"71":0.0036797283559616037,"72":0.06620373754177193,"73":-0.04518871620088751,"74":0.020976811131016883,"75":0.11824694967630432,"76":-0.052794812920663806,"77":0.06747955608457361,"78":-0.02338357997924889,"79":-0.010600445486052587,"80":-0.030007798473177666,"81":0.018298751503008512,"82":-0.04587670660485954,"83":0.036959302315668026,"84":-0.0007531113449493895,"85":0.07100844939596124,"86":0.016033115026279608,"87":-0.008481014925038867,"88":-0.054872239584684845,"89":-0.034401844656240084,"90":-0.01506151683382721,"91":-0.05334781794482565,"92":0.08760793915910152,"93":-0.015800916788715976,"94":-0.02674477911086283,"95":0.04160390250057359,"96":0.053141387726735864,"97":-0.0922559703474846,"98":-0.0178951885513092,"99":-0.10168890073455511,"100":0.04739059487462873,"101":0.08040975535032503,"102":0.033536742156938505,"103":-0.027771951740707172,"104":0.00630349469174811,"105":0.028836599829457292,"106":-0.020140837560416135,"107":0.0029553907859767264,"108":0.05349707414063657,"109":0.03406984531865281,"110":0.009247183250387342,"111":-0.03965187656594693,"112":-0.016618517798052294,"113":0.03517062091319699,"114":-0.06315350951537896,"115":-0.019228878547885887,"116":-0.08085857008576448,"117":0.03685457145277333,"118":-0.012180549023621659,"119":-0.03421681112387046,"120":0.0036709094731501497,"121":0.006468440180371765,"122":0.010321016671432473,"123":0.0056983143407084505,"124":0.01166604997096326,"125":0.05502459195382709,"126":-0.014583109508854207,"127":-0.08858984821552697,"128":0.021799825253510277,"129":-0.014828761243104541,"130":0.005525028053297641,"131":-0.035696072501751094,"132":0.00474506940689325,"133":-0.02410983944799244,"134":0.03358997037341876,"135":0.018625395893617717,"136":-0.004578644541950329,"137":-0.0232503201030433,"138":-0.01331348526027749,"139":-0.0011965549518274544,"140":-0.015740868784095436,"141":-0.0677512970537002,"142":-0.014839535691403623,"143":-0.03589681028836717,"144":-0.08283453575932623,"145":-0.010261198934792234,"146":-0.05568069703446707,"147":0.0032620732957183117,"148":-0.010559323030529123,"149":0.07119826473396519,"150":-0.004631054916312525,"151":0.09219623059024074,"152":-0.08403594100398555,"153":0.013354858870183513,"154":-0.05491804982193155,"155":-0.028259526170694004,"156":-0.05042378683166727,"157":-0.01571709995432066,"158":0.02918016154525984,"159":-0.022650044544038052,"160":0.1077422729829786,"161":-0.010864004979873214,"162":-0.026327027751496177,"163":-0.025282495023333025,"164":0.0902368420786465,"165":0.004819061812124956,"166":-0.05583481165385606,"167":0.008731698723373487,"168":-0.03167678679863054,"169":-0.11003709288175735,"170":-0.021740689551258702,"171":0.00023223133495528864,"172":-0.06897309886112886,"173":0.06075002795411812,"174":0.0021110385756613714,"175":-0.02072045417777344,"176":-0.012501551788611317,"177":-0.05497808727506977,"178":-0.016946923198333547,"179":-0.008647303138277385,"180":-0.04183314432388384,"181":0.042110099445540165,"182":0.05798914403038646,"183":-0.05703489101319553,"184":0.05087522778071364,"185":-0.1470190781778487,"186":-0.04654418738649535,"187":0.01412165423992218,"188":0.042858292189287155,"189":0.05199522360119318,"190":-0.013668521291633217,"191":-0.020480475174228983,"192":-0.06569990170623641,"193":0.03687785965666326,"194":0.01996970700841468,"195":-0.013988405890036209,"196":0.021636007142127933,"197":-0.042116065111620006,"198":0.022658392923626324,"199":-0.0342605865147899,"200":-0.029647593789729473,"201":-0.009147830886154168,"202":-0.025855162767450833,"203":0.01872913513692937,"204":-0.020405111667500028,"205":-0.009021592327764246,"206":-0.03578121304537174,"207":-0.0074899117043051005,"208":-0.08016357509540793,"209":0.03332986473846559,"210":-0.0042718356582523865,"211":0.044697697216963025,"212":0.03307484073461168,"213":-0.033325895091198425,"214":-0.006546780836230672,"215":-0.0225784075764361,"216":0.011056481957485724,"217":-0.05006056495845206,"218":-0.01715966104305905,"219":0.01780417179999012,"220":-0.049620362638545565,"221":0.018063063291476413,"222":-0.014862909443473895,"223":-0.031957289201921674,"224":0.0518706541055086,"225":0.022938398062280457,"226":0.03073219256147855,"227":-0.012046340885052388,"228":-0.00936868395177206,"229":-0.007928038015336656,"230":0.05091000127476939,"231":-0.14351782052751808,"232":0.021992838472399624,"233":-0.08628517078052644,"234":-0.11973997749366282,"235":-0.04123752301605651,"236":-0.06450190113026187,"237":-0.017870343043779907,"238":-0.006151156389497849,"239":0.11144171634233513,"240":0.011700535755982795,"241":0.04467765548948288,"242":-0.08199351955792554,"243":0.031251756412843716,"244":-0.0415170801171778,"245":-0.011314746323880059,"246":-0.045269866767196944,"247":0.01472417489084245,"248":0.04067033035218226,"249":-0.0280518018065418,"250":0.11553956700571902,"251":-0.043683811003644775,"252":-0.05423172069990534,"253":-0.016548930993050576,"254":-0.03044351434835165,"255":0.030805034275717853,"256":0.02088118584611478,"257":0.0807627353516534,"258":-0.04759785330120246,"259":0.07357483699318185,"260":-0.021226059801227656,"261":0.007743232040340415,"262":0.05181540894490307,"263":0.01654026168286475,"264":0.09195102160656435,"265":0.060089855492263165,"266":0.02388654959017131,"267":-0.02234090759063195,"268":-0.036161453260658276,"269":-0.03215544393593091,"270":-0.0024311463260334927,"271":-0.04319890539251984,"272":-0.05996969081770932,"273":0.046010542274371825,"274":0.059966781026953776,"275":-0.01697287274621738,"276":0.01272232621284349,"277":0.04346309527582088,"278":0.03136409895493919,"279":-0.015523435992252133,"280":-0.012489228396553309,"281":-0.0392829534375895,"282":0.024054209226225243,"283":-0.06735944737851297,"284":-0.04358731579022392,"285":-0.0015872615567260702,"286":0.005025552457840869,"287":0.008587696240852583,"288":-0.0809054350676853,"289":-0.014907160035192811,"290":-0.013681209565930517,"291":0.0442306792817531,"292":0.11187496808595818,"293":0.12078135483356585,"294":0.0396780626285682,"295":0.023922394607554825,"296":-0.022638642108029714,"297":-0.0797168939458742,"298":-0.03395427355089893,"299":-0.07171228605097393,"300":-0.039681142842838725,"301":-0.006555052436647916,"302":0.046869287655082324,"303":0.005618037244139725,"304":0.07142050355106352,"305":-0.0035486539355353078,"306":0.0097861229384153,"307":-0.014589094524046187,"308":-0.014014568686114238,"309":-0.02373215769772186,"310":0.00658669790316714,"311":-0.051519736450376254,"312":-0.03342752235529705,"313":-0.05103666656457435,"314":0.002616727786968635,"315":-0.08238071671471806,"316":0.05432000056716323,"317":-0.05115721883542858,"318":-0.018742483766502598,"319":-0.034045663534448704,"320":-0.035813336908692144,"321":-0.08958974886925092,"322":-0.00496195495383182,"323":0.04974744479033979,"324":-0.003472815266954786,"325":0.057416044864730044,"326":-0.003274292714361911,"327":0.037602313145480674,"328":-0.014952816343128058,"329":0.022709998542608537,"330":0.0003364888750877335,"331":-0.042157960083910324,"332":0.031053590040016028,"333":-0.0034512608053136797,"334":-0.03961047954848317,"335":-0.0790636878927623,"336":-0.07099536028735513,"337":0.049360792564807396,"338":-0.0074715964137857475,"339":0.01872572766197866,"340":0.05065274025917973,"341":-0.03214512078372501,"342":-0.05537115195062769,"343":-0.010226050271585466,"344":0.04763062762331405,"345":-0.00014234764185153332,"346":-0.022036048161593498,"347":0.06741518544860373,"348":-0.019236334152990503,"349":0.029563502498547625,"350":-0.005457977985482763,"351":0.03614019370278477,"352":-0.0007029084887297836,"353":0.042840582236513707,"354":0.014888678887622608,"355":0.008608388103629523,"356":0.08622571302548944,"357":0.054870846409811457,"358":0.00888144427428778,"359":0.019801621514921475,"360":0.011943342733793133,"361":0.01424475102399325,"362":0.05034500949449454,"363":0.042706376508335635,"364":-0.012850815398226028,"365":-0.033874888004440024,"366":-0.09303688883070539,"367":0.07423793115216852,"368":-0.06504310789427552,"369":-0.027514544971940898,"370":0.05321606675008969,"371":0.040665595242832205,"372":0.012115835088215607,"373":-0.0021096192454011127,"374":-0.07093489004397159,"375":-0.019711177883166987,"376":0.046002079290932876,"377":-0.030686237323534364,"378":-0.09392424033872894,"379":-0.0409664989919286,"380":0.021162416495540133,"381":-0.0932414473137834,"382":0.03728208502318134,"383":-0.010092287578276564,"384":-0.025985187163126006,"385":0.0077846910653664924,"386":-0.011914370950108865,"387":-0.03534237915387132,"388":0.0225776785359431,"389":-0.03901476967229343,"390":-0.062036884527701446,"391":-0.015399896151963473,"392":-0.04650615616304158,"393":0.013653969375228569,"394":0.03860889310978966,"395":-0.032534325710860436,"396":0.08958124858130667,"397":0.00107642606382978,"398":0.09855359567797473,"399":0.00851379758664211,"400":0.02212096610276771,"401":0.058075247505002335,"402":0.08607951922673109,"403":-0.04189688690203828,"404":-0.05229615662477224,"405":0.011261227395028642,"406":-0.060883445757730796,"407":0.03869828119624895,"408":-0.007512518045738154,"409":0.012623156735827938,"410":-0.06743651049764537,"411":0.07390192699264543,"412":0.05589157385666758,"413":-0.07981493233828357,"414":-0.033557574724868526,"415":-0.03802509006842942,"416":-0.0032533253419015414,"417":0.14590318982554668,"418":-0.04737452298017012,"419":0.03747530543199047,"420":-0.033993441418468606,"421":0.020469161344042117,"422":0.0036879747407138562,"423":0.02458666687434707,"424":0.013474930157135393,"425":-0.1395541709847414,"426":0.062434890162456215,"427":0.06911829147680303,"428":-0.027852202593848033,"429":0.013435123170407343,"430":-0.03044897150278593,"431":0.022568247740686734,"432":-0.031526491698739306,"433":-0.057601773197923055,"434":0.012613723630825822,"435":0.03439131821158881,"436":-0.051995439192005055,"437":0.0023418270023867318,"438":-0.007459653374178088,"439":-0.0006217490524805144,"440":0.036463415588531486,"441":-0.011273117582821113,"442":-0.001369343698274737,"443":-0.007342279351165129,"444":0.007284662603138301,"445":-0.0014553621684938907,"446":0.01529179375373309,"447":0.031013002741144956,"448":0.019215302845823512,"449":-0.05916317847281793,"450":0.08224613922325817,"451":0.006305525083024794,"452":-0.050752909671439986,"453":0.017542512512863477,"454":0.10059802809925114}},{"sx":1,"sy":1,"depth":455,"w":{"0":0.014480753677951692,"1":-0.0413638462454463,"2":0.012996482012720014,"3":0.07891582949611964,"4":0.030375811717146532,"5":-0.05564414859497684,"6":0.0304370085844585,"7":-0.06429784792641172,"8":0.0446616210134728,"9":0.09430895919996223,"10":0.04837103799461733,"11":0.026023620479924618,"12":-0.02139074244155288,"13":0.08899303132878227,"14":0.05581344085027309,"15":-0.0778599155413967,"16":-0.05234821514381909,"17":0.04952926319736577,